,w1,w2,w3,spec
0,-19.412051917,-0.00800813779713,-0.0983234514231,8.29127050784
1,-19.3925762704,0.102175079139,-0.0181203629051,8.33645504456
2,-19.1860083489,0.0515907084754,-0.00837556175384,8.74941587378
3,-19.368805203,0.0653355038918,-0.0218811080547,8.74941587378
4,-19.1284797759,0.0406741615635,-0.0347037468452,8.74941587378
5,-19.207865554,0.020823706284,-0.0404695728078,8.33645504456
6,-19.1791484869,0.0609243613496,-0.0834588404151,8.17764285739
7,-19.0059806915,0.0176666799572,-0.0536393164529,7.82178951994
8,-19.0810221734,0.0752388524747,-0.0201206392272,8.106083968
9,-19.330361012,-0.0323872988255,-0.062449476485,7.47465180693
10,-19.1019368249,0.0456785940587,-0.0542166525236,7.82178951994
11,-19.2075427928,0.0770199119952,-0.0283696391306,8.106083968
12,-19.2734088611,0.0663082616549,-0.052230691059,7.5167353578
13,-19.2424301834,0.12928765856,0.00438242477626,9.12954404406
14,-19.1451265068,0.00150388371429,0.00190017314296,7.82178951994
15,-19.1164819187,0.0492611044007,-0.0116514559855,7.64793860207
16,-19.1670202733,0.0641284007474,-0.0685970502932,8.17764285739
17,-19.3746417902,-0.00425567673694,-0.0620673668671,7.64793860207
18,-19.0327967613,0.187511093719,-0.0150653391818,7.47465180693
19,-19.2981293984,0.00808705553302,-0.023287964543,7.64793860207
20,-19.1408353787,-0.00230281586983,0.00463642401706,7.93134141954
21,-19.2462060818,0.0557302121825,-0.0224529034335,8.17764285739
22,-19.2946962785,-0.00907419683538,-0.0328354081845,8.106083968
23,-19.2556602129,0.0245706231734,-0.0636866145079,7.12662246332
24,-19.0195257365,0.111856576388,-0.00307818858009,8.106083968
25,-19.2037772629,-0.0174112422145,-0.0361328555004,7.12662246332
26,-19.3427017063,-0.12962090065,-0.0257031943517,6.89959088008
27,-19.1771976091,0.112182547903,-0.0335793251215,7.93134141954
28,-19.1996920763,0.0250155192058,-0.0650745178922,9.58362495831
29,-19.258336208,0.0289062126762,-0.0593544209259,7.93134141954
30,-19.2361421429,0.00703237763547,0.00251957777785,7.47465180693
31,-19.0107255813,0.0315968635442,-0.037151654413,7.47465180693
32,-19.1391921214,0.0723586553903,-0.00260876886925,7.82178951994
33,-19.3553947225,0.0782357183066,-0.00137709020369,9.58362495831
34,-19.2118878909,0.015166975381,-0.00693296647546,9.58362495831
35,-19.347536531,0.0208014636838,-0.0232885380882,9.58362495831
36,-19.3342074915,0.00104931473242,-0.0253307138876,7.93134141954
37,-19.2740293459,-0.0254988175281,-0.0532828148277,8.33645504456
38,-19.2694577038,0.126707730642,-0.046998854291,9.12954404406
39,-19.3290226211,0.0608158318118,-0.00991348145836,9.58362495831
40,-19.4863129475,0.071304032169,-0.0012425877335,9.58362495831
41,-19.3572839437,0.0660232031361,-0.0531692827991,8.33645504456
42,-19.3850708476,0.061401023308,-0.0276631944796,9.58362495831
43,-19.0501101285,0.0811177211082,-0.0214183428136,9.58362495831
44,-19.4837638088,0.12658070811,0.0606629707656,9.12954404406
45,-19.2253863265,0.0627828044479,-0.0558668970873,8.74941587378
46,-19.1985969958,0.00233524815579,-0.0392366984029,7.47465180693
47,-19.0543453347,0.0974830546539,-0.0416688893884,7.93134141954
48,-19.1446812127,-0.0172998985655,-0.0723918039848,7.17801435496
49,-19.046981672,0.0901882351293,-0.0361605734573,8.1179837127
50,-19.1500833488,0.0149088010348,-0.0383328307662,8.29272626117
51,-19.1319201694,0.0415193309845,-0.0262217155111,7.93134141954
52,-19.0365143779,0.0644809721916,-0.0156477036113,8.29272626117
53,-18.9961917832,0.0480866956745,-0.0380124181183,8.47624908333
54,-19.2387779832,0.00575325634502,-0.0285019557593,7.93134141954
55,-19.2456060517,0.160751287141,-0.0187674814983,8.33645504456
56,-19.1721082173,0.0172261807122,0.00505846731469,7.82178951994
57,-19.5015354505,0.111732001721,-0.00819132554353,8.74941587378
58,-19.0743269148,-0.00468217242524,-0.050000540842,8.47624908333
59,-19.1973927935,-0.00302566552305,-0.0262891187107,7.82178951994
60,-18.9829815639,0.0632427463933,-0.0302560119801,7.47465180693
61,-19.3991911506,-0.0281315099856,-0.0622325414083,7.82178951994
62,-19.3176970439,-0.06960901267,-0.0892500727162,7.12662246332
63,-18.9549589638,0.127587707327,-0.112351771681,7.92056673622
64,-19.1024312743,0.0739793513423,-0.0138363580601,7.47465180693
65,-19.2563717049,0.299175946766,-0.0598892364556,8.43182381271
66,-19.212636915,0.0484032118299,-0.0114940959069,8.61487851944
67,-19.4415664148,-0.16644712836,-0.0758444447733,6.76096144397
68,-19.5133166562,0.0758966177872,0.00261964291087,9.58362495831
69,-19.1164300362,0.200268393781,-0.000969336689242,7.93134141954
70,-19.1179141747,0.0677114302717,0.014881156593,9.58362495831
71,-19.2172959666,0.0681597565635,0.0124748900095,8.92270266892
72,-19.3231135637,0.062182459776,-0.0279009684338,7.93134141954
73,-19.6039142434,-0.075406227909,-0.132142108525,8.33645504456
74,-19.5098089259,0.235414299214,-0.0294402753354,7.54336604505
75,-19.1977293241,0.0997098309433,0.0210119492867,9.58362495831
76,-19.4535206116,0.0299902932151,-0.0432521921486,8.1179837127
77,-19.2547704723,-0.0584241016187,0.202837549616,5.64489095683
78,-19.2446541479,0.0550068336202,-0.0638325702783,8.33645504456
79,-19.400077197,-0.0753922369768,-0.0525059789453,7.47465180693
80,-18.9989183991,0.0590733843085,-0.0176466311043,7.47465180693
81,-18.9955660502,0.0495958745101,-0.0253471006632,7.82178951994
82,-19.3627610768,0.0833164941872,-0.0690052921489,9.12954404406
83,-19.5027761801,0.0390393298301,-0.0267287674116,9.58362495831
84,-19.2379361559,0.103263932953,0.0448088475595,9.58362495831
85,-19.3214583671,-0.0539786838271,-0.109894600985,7.93134141954
86,-19.5773584377,0.0945283024188,-0.0283611206783,7.93134141954
87,-19.4065270709,-0.00885010720554,-0.0736675802276,7.93134141954
88,-19.2837703084,0.0275900911579,-0.120412788524,8.33645504456
89,-19.4676882879,0.0276514597173,0.0362852712415,7.94562329498
90,-19.3571883475,0.0664444332893,-0.0293908204451,9.58362495831
91,-18.967242998,0.0994459343001,-0.0241417784764,7.82178951994
92,-19.3857252474,-0.0797856468391,-0.0687431106764,8.33645504456
93,-19.264532252,0.0976817487679,-0.00384457675971,9.58362495831
94,-19.1692833069,0.0717467333075,-0.00721953030242,9.12954404406
95,-19.4118389073,0.0991211881668,0.0358852752101,9.58362495831
96,-19.2902305242,0.0506558654694,-0.0693406070869,8.72205532466
97,-19.4849602772,0.0344956140332,-0.0702094666237,9.58362495831
98,-19.1786226177,0.000873366196042,-0.0279842546834,7.82178951994
99,-19.2929268417,0.0162728117855,-0.0798591113413,8.17764285739
100,-19.0989063037,0.0324450045095,-0.0233689901024,8.74941587378
101,-19.2644882839,-0.0261339754402,-0.028948410585,7.12662246332
102,-19.2443033499,0.0719056431767,-0.0243318225821,8.74941587378
103,-19.3247258153,-0.0691419739296,-0.0356233078282,7.29990925846
104,-19.3036906912,-0.00633609631915,-0.051194162955,7.93134141954
105,-19.1966235981,0.110158284699,-0.000583406756966,9.10934496209
106,-19.1730388844,0.0563669479108,0.00744524528946,9.58362495831
107,-19.2786575577,0.121369856027,-0.052143554533,9.1269353457
108,-19.3843783435,0.0998035817724,-0.0220706543256,8.74941587378
109,-19.1345597313,0.0381684863734,-0.0289396203097,7.93134141954
110,-19.2929352885,0.117805115127,-0.0480233801793,8.33645504456
111,-19.0865788325,0.111935728729,-0.032775936801,7.83458089523
112,-19.4353649852,0.0313531648649,-0.0207578797003,9.58362495831
113,-19.1366357787,-0.0616350325534,-0.0334342792803,7.93134141954
114,-19.3265089534,-0.00816437761506,-0.0262224548372,6.3219035071
115,-19.0861001702,0.20407307913,-0.000749998483077,7.93134141954
116,-19.1952147546,0.0860942085522,-0.0460443598841,8.33645504456
117,-19.2950957144,0.0550801874201,-0.0391815699303,8.74941587378
118,-19.4041060435,0.0363522367389,-0.0244159522749,7.47465180693
119,-19.2955427542,-0.111687109858,-0.038191688137,7.12662246332
120,-19.3052308833,-0.0822088278612,-0.0195097057901,7.93134141954
121,-19.2107009211,0.0997088296787,-0.0328497587069,9.58362495831
122,-19.3634029656,-0.0031362820527,-0.0762087830066,8.33645504456
123,-19.3771378233,0.00379115929124,-0.0336939470535,7.47465180693
124,-19.2350092887,0.0568486064363,-0.119502602719,9.12954404406
125,-19.2789291062,0.216261350026,-0.0382289812014,8.72205532466
126,-19.4402903038,-0.0458128119158,-0.0650754746758,7.94562329498
127,-18.9978213329,-0.0258472394931,-0.0487532019353,8.106083968
128,-19.3703152163,-0.0820404228373,0.103747503304,5.64489095683
129,-19.0525266952,0.0754166988793,-0.0493559655703,8.74941587378
130,-19.1492430107,0.0281945273842,-0.0474518392201,7.47465180693
131,-19.1679815267,0.104064180583,0.0360274600292,9.58362495831
132,-19.3981404075,0.0452241310408,-0.0306736297975,7.93134141954
133,-19.499792454,-0.0210840588974,-0.0840994129677,8.6243983152
134,-19.1821647803,0.0761682074497,0.00422224969578,9.58362495831
135,-19.4623227732,-0.0731823512743,-0.0133490836489,8.29127050784
136,-19.116862741,0.00637297761676,-0.0808557754923,7.97110335447
137,-18.9798102693,0.0540430509231,-0.0202672597894,7.82178951994
138,-19.1075999948,-0.0117340018637,-0.0423089877138,7.93134141954
139,-19.2010305112,0.0744596484592,0.00536984716946,9.58362495831
140,-19.2946165832,0.0179372357723,-0.0193185310269,7.93134141954
141,-19.0347224202,0.0763405952021,-0.0507552717693,8.33645504456
142,-19.160683646,-0.0412547174284,-0.06430642439,7.47465180693
143,-19.4135700851,-0.129798009798,-0.0520476829969,7.47465180693
144,-19.3002336668,-0.123525111848,-0.0897230246185,8.29127050784
145,-19.2915552758,0.0517238980342,-0.0320739300453,7.93134141954
146,-19.2995295399,0.000242471217725,-0.0668305698898,7.93134141954
147,-19.1949403396,0.015731963213,-0.128635225377,8.33645504456
148,-19.3718421001,0.0494229157263,0.0407881763929,5.64489095683
149,-19.3420214989,0.0251455483698,-0.109003587753,8.33645504456
150,-19.3133751559,0.0770077591498,0.00257461756497,9.12954404406
151,-19.3578664683,0.06515208769,-0.0434214725681,7.93134141954
152,-19.1914294315,0.148842506752,0.0149612966856,9.12954404406
153,-19.1651737806,0.0906544767577,0.00940022472907,8.29272626117
154,-19.2647854945,0.0167082191534,-0.0353106098841,8.74941587378
155,-19.368624804,0.0488359207949,0.00325049060539,7.82178951994
156,-19.1320075473,-0.00854356264998,-0.0307404596495,7.17801435496
157,-19.1725105265,-0.0541874212021,-0.0197351033336,6.3219035071
158,-19.3083056976,0.017668926859,-0.039869979124,8.47624908333
159,-19.2397372696,0.139864532551,0.0177616170823,8.92270266892
160,-19.2605610265,0.104809369802,-0.00262187169722,7.93134141954
161,-19.1612618492,0.0488218192335,-0.0599837803823,8.92270266892
162,-19.3264152182,-0.0209337199208,-0.0793068666237,8.74941587378
163,-19.132432355,0.0706318500497,-0.0374526303702,8.74941587378
164,-19.2593078459,0.0860774376453,0.022569105383,9.58362495831
165,-19.3828855511,0.112353047903,-0.0222837535358,8.92270266892
166,-19.0525696714,-0.0316884940108,-0.0538527316646,8.72656343996
167,-19.2305633984,0.150558993781,0.0278970263819,9.12954404406
168,-19.2564309087,0.0624210911334,-0.0367126963689,8.83855035697
169,-19.3322180219,-0.0168682031914,-0.136698065929,9.12954404406
170,-19.243561807,0.107960041358,0.0261171365635,9.28263175723
171,-19.4355769834,0.0058325090806,-0.0515890319142,8.33645504456
172,-19.3020605777,-0.0457761531642,-0.0755946026626,7.93134141954
173,-19.0530065351,0.0580480876127,-0.0417054556283,7.82178951994
174,-19.0705612555,0.13305193259,0.00699892657084,8.72205532466
175,-19.5597435447,0.267145287903,-0.0220764764939,7.93134141954
176,-19.2219246698,-0.00429250663908,-0.0414553823314,7.82178951994
177,-19.3841967115,0.0616804674362,-0.0124580495512,8.106083968
178,-19.3351856422,0.0984688566689,-0.051048913074,8.74941587378
179,-19.158759788,0.0769910660044,0.0177702926086,9.12954404406
180,-19.1332904983,0.0374093715276,-0.0376901093932,9.58362495831
181,-19.4716128806,-0.0146090828813,-0.0513288313473,8.72205532466
182,-19.4392129321,-0.00282754067277,-0.0649069585925,7.93134141954
183,-19.5952687566,-0.0395367877706,-0.0681791920974,8.53312011302
184,-19.2032979031,0.093599035635,-0.00703851581581,8.106083968
185,-19.3521892691,0.18032332643,0.0162856235347,9.12954404406
186,-19.2410834189,0.0742003000386,-0.00635889628646,9.58362495831
187,-19.7041985886,0.135965390456,-0.184826072043,8.21342230208
188,-19.5356036651,0.157343055205,0.0269960180188,8.10973279058
189,-19.6042137666,0.204103138168,0.0489800564613,9.12954404406
190,-19.573795292,0.0812156018791,-0.00138471618313,9.58362495831
191,-19.2280190647,0.0594638493836,-0.0152153438968,9.58362495831
192,-19.1193818143,-0.0219142608024,-0.0273588224236,7.93134141954
193,-19.2518581588,-0.0311945940181,-0.0319688602616,8.33645504456
194,-19.2634079081,0.0810562240132,0.0355686747459,9.58362495831
195,-19.2664769953,0.0857842049553,-0.0241241379385,7.93134141954
196,-19.3071963772,0.127750508569,-0.0586614735099,8.33645504456
197,-19.1696576777,0.108081106291,0.0140518263352,9.58362495831
198,-19.1871917554,0.00122790474223,-0.0759552853248,8.17764285739
199,-19.3948920014,-0.105989138999,-0.0816554361254,7.31664379107
200,-19.1550991765,0.0515978537753,0.00333471463126,9.12954404406
201,-19.2067966257,0.0502873578705,-0.0280361186325,7.82178951994
202,-19.3130303318,0.0896062174072,-0.0242470913691,9.12954404406
203,-19.2322844009,0.0192629261106,-0.04961291959,7.82178951994
204,-19.3392424791,-0.0792788172207,-0.0321380282852,7.82178951994
205,-19.479284533,-0.223471409317,-0.077792582458,7.29990925846
206,-19.1213871016,0.128746458023,-5.98226985611e-05,9.12954404406
207,-19.1477166147,-0.0138888921217,-0.0281626744729,7.47465180693
208,-19.4183285218,0.0753437659203,-0.00814796907528,9.58362495831
209,-19.4827577556,0.0355324745138,-0.00485334321622,7.93134141954
210,-19.5939717265,-0.203918050737,-0.127726516981,7.69267987958
211,-19.2209424531,0.125642980263,-0.0453190736369,8.72205532466
212,-19.2718335551,-0.000511721763349,-0.0554714860794,8.72205532466
213,-19.3310901368,-0.110081184152,-0.0241953814397,7.12662246332
214,-19.0883375854,0.0306858136494,0.00234244176395,7.82178951994
215,-19.0776353707,-0.0774632568542,-0.0479649956091,7.64793860207
216,-19.1954338614,0.0702406464974,0.0239625666939,9.12954404406
217,-19.2422180734,0.0420348614628,-0.0459557047149,9.58362495831
218,-19.3881626974,0.0032849261964,-0.0750811620511,8.1179837127
219,-19.0183891954,0.0487364473197,-0.0030947205741,7.47465180693
220,-19.1209836748,0.0779642687462,-0.000398091752714,9.58362495831
221,-19.3358136562,-0.0774862646152,-0.0626805029986,7.47465180693
222,-19.1942117145,-0.065870332204,-0.0834869378439,7.64793860207
223,-19.1285655998,0.0773375180608,-0.011285600897,8.74941587378
224,-19.2000364402,0.0216343022997,-0.064004799926,7.47465180693
225,-19.2011366754,-0.0133017738137,-0.0521702768009,7.93134141954
226,-19.3668743926,-0.0668642494179,-0.0908833389086,7.12662246332
227,-19.3505133653,0.0582104908613,-0.0454373533948,7.93134141954
228,-19.5951144072,0.155459142137,-0.0345090750332,7.93134141954
229,-19.1406292821,-0.0527685000533,-0.0387491935826,7.47465180693
230,-19.1618352538,0.12623499357,0.0265673526848,9.12954404406
231,-19.2251908951,0.113973477657,-0.0737685621409,7.93134141954
232,-19.2495419109,0.0868615606876,-0.0771864895909,7.94562329498
233,-19.1253764381,0.00257652556301,-0.0291316592934,7.82178951994
234,-18.9845466924,0.0850180445187,-0.0287986330323,8.74941587378
235,-19.3844670819,-0.0658665064051,-0.0639093615987,7.93134141954
236,-19.0015002106,0.0496418918588,-0.00431367050433,8.106083968
237,-19.0906040963,0.0987620091179,-0.0297648442234,7.47465180693
238,-19.4100342032,0.102237182301,-0.102854750631,9.58362495831
239,-19.2016880468,0.0387195757,0.0138034817948,8.106083968
240,-19.3412428326,0.0815463022173,-0.051983050751,8.72205532466
241,-19.4402235341,-0.0641923649744,-0.0775123379661,7.54336604505
242,-19.398665478,0.124109000641,0.000122482800789,7.93134141954
243,-19.2957893277,0.0686879025109,-0.0186920066469,9.58362495831
244,-19.3142780778,0.0829705744118,-0.0127955184814,9.58362495831
245,-19.3655627097,0.0540054644058,-0.00674074577058,9.58362495831
246,-19.2266597252,0.188365323938,-0.0089383167006,8.74941587378
247,-19.2826750041,-0.0746215642298,-0.0931095836932,7.47465180693
248,-19.1832145263,0.0629288545143,-0.048197387701,8.74941587378
249,-19.33016152,-0.0421064975695,-0.0469027286975,7.93134141954
250,-19.1343445449,0.0837531736158,-0.00186205131363,9.58362495831
251,-19.3199877447,0.0688627823024,-0.031168412699,9.58362495831
252,-19.1087893219,0.0904516849335,-0.0439897306251,7.28568629761
253,-19.2321999678,0.124263325468,-0.0139380345991,9.12954404406
254,-19.1378345808,0.0777408791004,-0.0257557446346,8.74941587378
255,-19.1443682039,0.0574809250831,0.00591732166287,9.58362495831
256,-19.5890276271,0.261999165493,0.00559906340262,8.33645504456
257,-19.2154710575,0.0897119400227,0.0114854171335,9.58362495831
258,-19.2437380822,0.0237318418115,-0.0237397725829,7.82178951994
259,-19.4758814737,-0.176579724554,-0.019670376991,6.35798083986
260,-19.3817912321,0.119624270411,-0.0109053036798,7.82178951994
261,-19.3411767626,0.0706006542069,-0.0585733230315,8.74941587378
262,-19.2975795066,-0.00746126621054,-0.0213963151089,6.84321964585
263,-19.3584010209,-0.0573189432867,-0.050923236838,7.29990925846
264,-19.487649461,0.143635468436,-0.0116909377994,9.28263175723
265,-19.3753976398,-0.021987817824,-0.11211366869,8.1179837127
266,-19.4678529997,0.28503200297,-0.0142199132396,7.93134141954
267,-19.225151203,0.0349918377511,-0.0300740848927,8.106083968
268,-19.2444434024,0.0582472633272,-0.0491538689407,8.74941587378
269,-19.4784160957,-0.237483924557,-0.0718416050659,7.12662246332
270,-19.2643494408,0.0139603307591,-0.0694586854114,8.74941587378
271,-19.1094473061,0.0486733818249,-0.0144020233269,7.93134141954
272,-19.3079946776,0.0213404233696,-0.0477647662372,7.93134141954
273,-19.4857327574,0.173996457387,-0.00911215211521,7.12662246332
274,-19.406057218,0.0784163064266,-0.133133790731,9.12954404406
275,-19.3981521027,0.0482222626752,-0.0954216463064,9.58362495831
276,-19.4319157925,0.0543280352424,0.0237447902062,6.84321964585
277,-19.7323148107,-0.0317012835957,-0.0657468269203,6.3219035071
278,-19.4860224736,0.0700602369662,-0.0131153751989,7.47465180693
279,-19.4916880763,0.0865853635693,-0.0229173202853,6.3219035071
280,-19.5610608807,0.00216609576022,-0.0432335118902,7.47465180693
281,-19.4206181032,0.154781257939,-0.0283153150813,8.33645504456
282,-19.451448202,0.0818554873823,0.0459617511553,9.58362495831
283,-19.5464742971,0.125423310644,-0.0594671047264,7.93134141954
284,-19.4760173327,0.0287429621361,-0.0554667961512,7.93134141954
285,-19.4020122304,-0.045806127959,-0.0298975644381,7.47465180693
286,-19.1629099559,1.81208763332e-05,-0.00846397888493,7.64793860207
287,-19.2437895146,0.07391145068,-0.00921517648392,9.58362495831
288,-19.0376604252,0.109348995573,-0.00499904358934,7.82178951994
289,-19.4988753934,0.175454465535,0.0239596495013,9.28263175723
290,-19.5796520161,0.0459520088451,0.0017714900608,6.14861671196
291,-19.487153346,0.0576533098931,0.0047258783486,9.58362495831
292,-19.3054208587,0.0773047599783,-0.0519634863241,7.93134141954
293,-19.3460529084,-0.0739320912405,0.267525926381,5.64489095683
294,-19.4377612584,-0.00395288106367,-0.0641823124747,7.93134141954
295,-19.3187122464,0.0607548093879,-0.0591647172256,7.83458089523
296,-19.5651405627,0.179106449168,-0.0370577293457,7.12662246332
297,-18.9332593756,0.0504258060058,-0.0576705315705,7.82178951994
298,-19.3305208776,-0.0347669663666,-0.057733188297,7.82178951994
299,-19.2360605782,0.12679678579,-0.013136726915,7.93134141954
300,-19.4998567178,0.107193192548,-0.0445679789131,7.82178951994
301,-19.4915697916,0.0957073241601,0.0427153033177,9.58362495831
302,-19.2166013807,0.0275981235603,-0.0191374431568,7.47465180693
303,-19.5632271631,0.0396554900989,-0.0250795033273,7.54336604505
304,-19.3246092321,0.0368745842092,-0.0313479255807,8.17764285739
305,-19.1688677913,-0.0011160329101,-0.00832615845133,6.84321964585
306,-19.5236151695,0.126802682031,-0.0169708416248,8.33645504456
307,-19.3628019646,0.0497553379535,-0.066948074944,7.93134141954
308,-19.4040138247,0.0952854285904,0.0251471396089,9.58362495831
309,-19.3444914614,0.0200016310382,-0.0394895172036,7.64793860207
310,-19.2559276861,-0.0565583278816,-0.0799585820663,7.64116355324
311,-19.2466348102,0.0755110979076,-0.019961941277,9.58362495831
312,-19.6915640829,0.108981461648,-0.05377912209,7.17801435496
313,-18.9762969744,0.0545613375673,-0.0332764105032,7.47465180693
314,-19.3922532513,0.0616526895504,-0.00293657796592,8.74941587378
315,-19.2525024905,0.136377073649,0.0100545058992,8.74941587378
316,-19.455755406,0.198605426322,0.0148793490161,7.94562329498
317,-19.7935252116,-0.0526750134329,-0.1006639875,6.79618350333
318,-19.2327570826,-0.0430830310335,0.0145339613325,6.3219035071
319,-19.4843181413,0.0785199575933,0.000328982820086,8.106083968
320,-19.1588131886,0.030727642568,-0.0395743289264,7.47465180693
321,-19.5742936427,0.185625461215,0.0108787243165,8.33645504456
322,-19.5281891977,0.221861336103,-0.0160519469589,7.82178951994
323,-19.4625900951,0.0270507991158,-0.0546708144387,8.74941587378
324,-19.4977178285,0.243013131035,-0.0461745204669,7.54336604505
325,-19.4393279907,0.0810581832929,0.00728374974612,9.58362495831
326,-19.4246154654,0.0176124178098,-0.09549245475,7.29990925846
327,-19.2795473274,0.112884744801,0.0542266866578,9.58362495831
328,-19.221921194,-0.114857021878,0.202660451039,5.64489095683
329,-19.1840327605,0.0828879491871,-0.0789019645224,7.12662246332
330,-19.2489579999,-0.0508377463264,-0.00555185021115,6.53423918999
331,-19.6166969871,0.257344032805,0.0761840402828,9.12954404406
332,-19.2395797639,0.0795895924194,-0.0190703704465,9.12954404406
333,-19.264233116,0.0593709747572,0.00471956100589,8.106083968
334,-19.2924109022,0.0721414559197,-0.000334402622079,8.74941587378
335,-19.3840904217,0.186815926099,-0.0164762219199,8.33645504456
336,-19.5327664308,0.0765125385064,-0.0277524752051,9.58362495831
337,-19.3036575925,0.0679442093925,-0.0115092554975,8.47624908333
338,-19.4395148671,0.129013868851,0.0264606376782,8.46455730298
339,-19.4044515276,-0.000139239719121,-0.107394285566,8.17764285739
340,-19.4286454371,-0.0684155657633,-0.0728950705304,7.29990925846
341,-19.3796646419,0.0703298445409,-0.0495184862679,8.72205532466
342,-19.3307418604,-0.0413278709272,-0.05491308807,7.82178951994
343,-19.4036994952,0.0422750701114,-0.147726631642,8.92270266892
344,-19.257109122,0.121331061545,-0.0349788909412,7.93134141954
345,-19.3754248657,-0.107178286895,-0.0500011386088,7.29990925846
346,-19.308294288,0.0565643185706,-0.058390373479,8.74941587378
347,-19.2895941937,0.0409333417042,-0.0582651601519,9.58362495831
348,-19.2674027279,0.108917076997,-0.0551175845577,8.33645504456
349,-19.3569880801,-0.0544294566258,-0.0969179271338,7.93134141954
350,-19.3956844859,-0.012745933789,-0.0160380705504,7.12662246332
351,-19.4359008219,0.120810986666,0.0754349969237,9.58362495831
352,-19.5589009736,-0.176379989693,-0.0212974307218,6.3219035071
353,-19.3735995915,0.00160571960266,-0.104445506039,8.1179837127
354,-19.3304793665,-0.0160832031003,-0.045796324362,8.33645504456
355,-19.2825172827,0.120269742232,-0.0392721119552,7.93134141954
356,-19.3405790913,0.0924990770256,0.0205977487168,8.74941587378
357,-19.3094189367,0.0576850995604,-0.00729407368937,8.74941587378
358,-19.2933518597,0.0542215543028,-0.0648689798935,9.14361635095
359,-19.3467199248,-0.141729076749,-0.230215850053,8.10973279058
360,-19.1788937904,-0.0620500057034,-0.0850808360629,7.8653316702
361,-19.3923219149,-0.0903389214766,-0.0286169790639,6.86473152356
362,-19.3250554316,-0.0894651205922,-0.0105435174672,7.17801435496
363,-19.392699995,0.0542586447571,-0.0432756041065,7.93134141954
364,-19.9202708388,-0.316453384697,-0.075230647472,5.80204312168
365,-19.6425849533,0.235279877343,0.0519279933239,8.74941587378
366,-19.4395410589,0.168652237757,0.0407465563233,8.74941587378
367,-19.2358823133,-0.0722362044453,-0.0377521688292,7.29990925846
368,-19.4087689002,0.0853359816327,0.000110894811489,9.58362495831
369,-19.2623316664,0.0624628295008,-0.031434491637,7.82178951994
370,-19.39371848,0.111645003515,0.00415567771702,8.74941587378
371,-19.329006939,0.0699540582589,-0.0464469077558,8.74941587378
372,-19.3809237232,0.110679092644,0.00705876372814,9.12954404406
373,-19.4167676537,-0.0697770011411,-0.0690207622006,7.12662246332
374,-19.0917161309,0.022580082457,-0.00986137002362,7.47465180693
375,-19.3347273293,0.125675680783,-0.0511950117494,8.59226370892
376,-19.3370082324,0.0780356412387,-0.0302797004779,7.93134141954
377,-19.4790652638,0.0854224228347,-0.0182679291949,9.58362495831
378,-19.0605413129,0.0797077390092,0.0139904161013,8.106083968
379,-19.3326152209,-0.0310854363286,-0.0458523349794,8.29127050784
380,-19.386694291,0.0569752306339,-0.100764628311,9.10934496209
381,-19.4357552441,0.107672426834,0.0104208665017,8.76700625739
382,-19.3496697397,0.109562508453,-0.0209105825217,8.95219279723
383,-19.3652006685,0.0544077157519,-0.0265068279866,8.33645504456
384,-19.2909296861,0.137736852611,0.0016169052682,8.92270266892
385,-19.420104452,0.103686647956,-0.0290777053986,9.58362495831
386,-19.4933687783,0.0811501728918,-0.018748249876,8.74941587378
387,-19.3324781214,0.0980936593141,-0.00261007286237,9.12954404406
388,-19.445345909,0.114537476824,0.00112811313796,8.74941587378
389,-19.3750105682,0.0786995714364,0.0495159727112,9.58362495831
390,-19.4916077716,0.0854273165983,-0.0344686022118,9.58362495831
391,-19.2992005458,0.0949442688447,0.0029963382014,9.58362495831
392,-19.5695140317,0.268681528288,-0.00891350111566,8.59226370892
393,-19.4033696864,0.0681182041061,-0.0209527292147,9.58362495831
394,-19.2875737588,0.0276746664165,-0.0184531775424,9.12954404406
395,-19.1916723532,0.0448493823648,-0.0163728592883,7.47465180693
396,-19.6057631912,-0.00602378078125,-0.0128882761705,7.64793860207
397,-19.8028986154,-0.121721441726,0.138275181399,5.64489095683
398,-19.4948944705,0.114981475813,-0.0419567522978,8.47624908333
399,-19.5031711443,0.143632100918,-0.0577152951838,7.29990925846
400,-19.8734910123,-0.059631619932,-0.0304020479606,6.80290253968
401,-19.3340929233,0.0671269034869,-0.0363491980924,7.82178951994
402,-19.2315940953,0.120128999165,-0.0309421616623,8.17764285739
403,-19.420424736,-0.114739637628,-0.0471427205649,7.17801435496
404,-19.3557682623,-0.00998007911557,-0.0334532014457,7.93134141954
405,-19.2948910406,-0.0270372322239,-0.0629660143526,7.54336604505
406,-19.1952167063,0.0937677841585,-0.023545601533,8.106083968
407,-19.5901646864,0.139427346651,-0.0131950931496,8.74941587378
408,-19.655498493,0.218819352441,0.049237811612,8.92270266892
409,-19.4648860608,0.111316931369,0.00371107889895,8.74941587378
410,-19.7257522539,0.348679760237,0.0510046583298,8.47508448067
411,-19.6624848997,0.186613191461,0.0564790457985,9.12954404406
412,-19.6184632825,0.11294532626,0.0514855543029,9.58362495831
413,-19.5225822399,0.170886707376,0.0376155942885,8.74941587378
414,-19.4962396985,0.00988334058134,-0.0899550872638,6.80290253968
415,-19.5274673322,-0.20102816511,-0.101883159669,6.76096144397
416,-19.4457511888,-0.00562571110493,-0.0237416214712,8.92270266892
417,-19.9587764904,-0.238172712879,-0.00232264596174,5.97855684288
418,-19.3086124316,-0.0420752936858,-0.0698034385286,8.1179837127
419,-19.5748281212,0.0822246873319,-0.0939638420366,6.80290253968
420,-19.2293364261,-0.0304932296381,-0.0963968480663,7.83458089523
421,-19.4722143051,-0.108866326307,-0.0479819347303,7.93134141954
422,-19.2246560254,-0.00473111468702,-0.0548842680659,7.47465180693
423,-19.3284824247,-0.00283371192313,-0.0510736959401,9.12954404406
424,-19.356475471,0.0863031562608,0.00449119037215,8.92270266892
425,-19.3659163331,0.0729640031415,0.0320010526068,9.58362495831
426,-19.3514243585,0.118607342362,0.0366601374698,8.74941587378
427,-19.4725982778,0.0629414184618,-0.0527655461095,9.58362495831
428,-19.4856327412,0.0887078898759,-0.00972361520784,7.93134141954
429,-19.2399558329,0.0834862731497,0.0134384153688,9.58362495831
430,-19.6056276828,0.0902175807046,0.025712926365,9.58362495831
431,-19.4242106243,0.126355858223,0.0389697757002,9.58362495831
432,-19.4039734295,0.0818144353502,0.0395036341401,9.58362495831
433,-19.4317697768,0.00604804930694,-0.0709169037954,8.33645504456
434,-19.2304005224,0.112992072457,-0.0237743052208,7.93134141954
435,-19.4093160605,0.0332893102038,-0.0815479618514,9.58362495831
436,-19.4604222264,0.187232451472,-0.0811307114022,8.33197092787
437,-19.4776890031,-0.0346969336335,-0.0404942420041,7.93134141954
438,-19.6684425727,-0.0579115905047,-0.000836551824669,7.64793860207
439,-19.4671224808,0.138113995252,0.0133081134746,8.74941587378
440,-19.3417738371,0.0484242048411,-0.0094333887285,9.58362495831
441,-19.2508189077,0.119813939289,-0.0467424435442,7.93134141954
442,-19.2472942638,0.13361157284,0.0240017829636,9.12954404406
443,-19.2165653985,0.113403739792,-0.00641000086967,8.74941587378
444,-19.3001567767,0.114779280278,-0.0825629103862,8.33645504456
445,-19.2935987424,0.0591954256872,-0.0385335671729,8.74941587378
446,-19.3438874146,0.0194363147295,-0.109391656,8.33645504456
447,-19.3027544271,0.131391899224,0.0284884092939,8.72205532466
448,-19.4130328615,0.0643477645849,0.00341970037848,9.58362495831
449,-19.4195471765,0.134031637661,0.0245744658053,8.74941587378
450,-19.3812611574,0.130698527178,-0.0344469917576,8.33645504456
451,-19.5387703683,0.084065209658,0.0357995693215,9.58362495831
452,-19.3908275332,0.0919580145014,-0.0405182593006,8.72205532466
453,-19.2970243764,0.0543841847654,-0.0169029838067,7.82178951994
454,-19.4702481674,0.0944568297701,-0.00587215890173,9.58362495831
455,-19.5837427541,0.135340602347,0.019189347168,8.74941587378
456,-19.6041405741,0.225705286093,0.0286137440894,7.93134141954
457,-19.1102196927,0.0784705634671,-0.0203114816478,8.106083968
458,-19.4721081282,0.070378031384,0.00928544324825,9.58362495831
459,-19.4898484869,0.0643454408857,-0.0214583473077,9.58362495831
460,-19.3211795224,0.136173062341,0.0246797378204,8.74941587378
461,-19.5024341702,0.177163106551,0.00267518335981,7.93134141954
462,-19.3690656187,0.0895980286207,-0.0188649412343,8.76555050406
463,-19.2958507446,-0.00634744858759,-0.108619282642,8.74941587378
464,-19.721720637,0.023095975267,-0.0906687425192,9.00382231218
465,-19.2364535735,0.0259734994407,-0.0297378098681,7.93134141954
466,-19.3345799198,0.036980213885,-0.0134190142551,7.47465180693
467,-19.3936359223,-0.00059766475895,-0.0766405748285,8.74941587378
468,-19.4765081422,0.0911830080612,0.0271346037415,9.58362495831
469,-19.4216404218,0.00692392625712,-0.0459244380229,7.93134141954
470,-19.5159757385,0.0460261480092,-0.0919590598792,9.58362495831
471,-19.2121679657,0.0648190438967,-0.0379949330401,7.1691912653
472,-19.3796491701,0.00303123914598,-0.103538947111,8.33645504456
473,-19.5676403221,0.126945014946,0.0364719948348,9.58362495831
474,-19.2840355966,0.0918297554539,-0.014155972056,9.58362495831
475,-19.2291129537,0.112154084406,0.00192428963161,9.12954404406
476,-19.3786703395,0.00401932709984,-0.0323567369807,8.10973279058
477,-19.2181448836,0.0323381296765,-0.0014728508809,7.47465180693
478,-19.3836652585,0.114175997345,0.0336963201344,9.58362495831
479,-19.5535423732,0.19891598679,0.020481661393,8.76700625739
480,-19.4568504162,0.0858569972151,0.0381606239759,9.58362495831
481,-19.3560364571,0.0717026874775,-0.0163451113184,8.74941587378
482,-19.3243343832,0.105369720608,-0.0010569970814,9.12954404406
483,-19.3630603433,0.0407369677118,-0.0209761107724,7.93134141954
484,-19.3605986641,0.0728546601525,0.0259519246666,9.58362495831
485,-19.3591644964,0.112801607125,0.0143102132302,8.74941587378
486,-19.3843508101,0.0247856709324,-0.0034470317716,8.106083968
487,-19.5900400529,0.179115613816,-0.018182154679,8.33645504456
488,-19.4470365903,0.0673596556227,-0.015439707666,8.74941587378
489,-19.474316504,-0.00047174920963,-0.0439335278354,8.74941587378
490,-19.1216903521,0.0818568644467,0.00274424616275,9.58362495831
491,-19.3271720574,-0.0855909030056,0.293711994516,5.64489095683
492,-19.0442617877,0.097888191335,-0.00166060401688,7.82178951994
493,-19.4214418177,0.18014993296,-0.0843926950843,8.72205532466
494,-19.0427372352,-0.0318991075874,-0.0372601501171,7.17801435496
495,-19.240074635,-0.11701554635,-0.100890678976,7.64793860207
496,-19.1045256106,-0.0148116602344,-0.0423265380753,7.64793860207
497,-19.3498806426,0.0279570365457,-0.0632342473718,8.33645504456
498,-19.4627157998,-0.00885963331688,-0.067445408016,7.17801435496
499,-19.3513628333,-0.00439081999092,-0.0319087536877,7.64793860207
500,-19.0138178415,-0.0151450603616,0.103919382259,5.64489095683
501,-19.4395660221,-0.0384476447032,-0.0658798050538,7.29990925846
502,-19.3371604673,0.00588606613938,-0.0579425915221,7.12662246332
503,-20.0991245901,-0.240000911495,-0.0992266119051,5.80204312168
504,-19.2940199252,-0.0469098302885,-0.100503509538,7.54336604505
505,-19.2547173291,0.02108050711,-0.0596619298863,7.93134141954
506,-19.3178391343,0.0842042341825,-0.0204927743465,8.92270266892
507,-19.2618617542,0.185151185746,-0.0104502189334,8.33645504456
508,-19.3229687093,0.0977596514165,0.00587255819407,9.58362495831
509,-19.5035946933,0.040340623665,-0.0700400120802,9.58362495831
510,-19.4901930646,0.0811726764158,0.0236464883622,9.58362495831
511,-19.3553027196,0.054220861604,1.85277730953e-05,9.58362495831
512,-19.7005733386,0.208102051918,0.0703168295641,9.10934496209
513,-19.3639546652,0.0839560148007,0.0420996868177,9.58362495831
514,-19.4566332934,0.0702697549917,0.0263441123658,9.58362495831
515,-19.1899093892,0.0567513304695,-0.0279137265795,7.93134141954
516,-19.4948059982,0.137268215933,-0.103390092757,8.33197092787
517,-19.5438540781,0.235224028163,-0.0171847725405,7.93134141954
518,-19.4831414407,0.107865913196,0.0683548641108,9.58362495831
519,-19.4151305114,0.102285985379,-0.035624688521,8.18557602052
520,-19.2381915433,0.0976023630377,0.0510826058401,9.58362495831
521,-19.6588532369,-0.0425235290554,-0.0641105495607,5.97855684288
522,-19.7391581731,-0.284074371984,0.00419124778273,5.97855684288
523,-19.3255942904,0.0802977117875,-0.00971869368655,8.106083968
524,-19.4505054284,0.0304676017747,-0.0424541820427,7.93134141954
525,-19.3482595485,0.150093321181,-0.0484655045595,7.54336604505
526,-19.2252338867,0.036937941032,-0.0374347000622,7.93134141954
527,-19.0636940638,0.0191467445986,-0.0467692062306,7.64793860207
528,-19.3021042677,0.0236416357365,-0.012806075536,7.82178951994
529,-19.4760375143,0.0537363888841,-0.0295836534052,7.93134141954
530,-19.7040057454,-0.0309188325158,-0.00411406445293,6.3219035071
531,-19.3118933474,0.0758930394046,-0.0232155412294,8.74941587378
532,-19.6624036464,0.204990569593,0.0485856213969,8.83855035697
533,-19.5607724913,0.103673117542,-0.0567753839583,7.12662246332
534,-19.4364153892,-0.175942567709,-0.0443398223799,5.97855684288
535,-19.4460593733,-0.000901149703622,-0.0532468563581,7.93134141954
536,-19.3295495724,0.0422971102398,-0.0275649196776,8.33645504456
537,-19.3990683568,0.0809532498545,-0.050689602796,9.58362495831
538,-19.6528488072,-0.2155986179,-0.0475117345986,5.97855684288
539,-19.4818940005,0.000101166517077,-0.0446009054923,7.93134141954
540,-19.271863993,0.0832379265685,0.0037844303555,9.58362495831
541,-19.3721287215,0.0919271761727,-0.0258810238071,9.58362495831
542,-19.5183525045,0.106550987343,0.0651836957702,9.58362495831
543,-19.4232928061,0.0494840629605,-0.0484377116008,7.93134141954
544,-19.1602252658,0.0866749912955,-0.044787454268,8.33645504456
545,-19.3525080194,0.0355837367437,-0.0501386011982,7.47465180693
546,-19.380434416,0.0864472279538,0.0246090939553,9.58362495831
547,-19.4031016995,0.00160075025528,-0.0605298411556,8.17764285739
548,-19.4166570206,0.0528067796556,-0.0393820925616,9.58362495831
549,-19.6114405944,0.0870051044382,0.0638458694213,9.58362495831
550,-19.5256578835,0.0649526865227,0.015916598263,5.97855684288
551,-19.4512039294,0.0622079406692,-0.00767477030314,9.58362495831
552,-19.3940814045,0.0848698799333,0.0327624061091,9.58362495831
553,-19.6989727886,-0.147714076725,-0.0398364987252,7.94562329498
554,-19.3211591314,-0.103870564271,-0.0451936665298,7.47465180693
555,-19.2344049986,0.0814607438153,-0.021737282324,9.58362495831
556,-19.4973460041,0.0886696481812,-0.0340254417622,9.58362495831
557,-19.4796248525,0.077039797837,0.008765524157,8.74941587378
558,-19.2785605555,0.0940507076943,-0.0407054100117,8.33645504456
559,-19.7558731816,-0.212180318935,-0.075109626927,6.51718743106
560,-19.8167613149,-0.239205676547,-0.0663177128274,5.80204312168
561,-19.3310354532,-0.140811376944,-0.0444663621168,6.76096144397
562,-19.3715759667,0.0623077556079,-0.0357605409011,7.8653316702
563,-19.3682489557,-0.0642418381241,0.0279456583568,6.3219035071
564,-19.3869361582,0.0914796390175,-0.0163808717611,7.93134141954
565,-19.4912868459,0.279168127449,-0.160424405645,7.54336604505
566,-19.4394534097,-0.0333048675914,-0.0212183915583,7.93134141954
567,-19.3853669582,0.0228807947037,-0.043830358405,7.93134141954
568,-19.1541664773,-0.0291605887698,-0.0892654050569,6.76096144397
569,-19.3293814999,0.0287857190937,-0.0570466867219,7.47465180693
570,-19.5734447386,-0.0131732063046,-0.0530518588045,7.12662246332
571,-19.3472127658,-0.0441193409096,-0.0129837500777,7.12662246332
572,-19.1971398312,0.139237806559,0.015831497898,8.33645504456
573,-19.1691096641,0.0557614031761,-0.0145572695621,8.106083968
574,-19.6092803329,-0.191497257841,-0.0631367340964,6.40166290097
575,-19.3546332218,0.00450553778761,0.00602195267884,6.3219035071
576,-19.38161963,0.0957871651503,0.0150183835172,8.33645504456
577,-19.5057231736,-0.0582843716076,-0.0186803575463,7.54336604505
578,-19.8137200048,-0.0633457068815,-0.0357081742282,6.3219035071
579,-19.4362171366,0.0740044814446,-0.0448922770253,9.58362495831
580,-19.4530127305,0.172547735352,0.0729599984035,8.72205532466
581,-19.3806619963,0.10873266533,-0.0129836757152,8.74941587378
582,-19.4329710586,0.0646461110684,-0.0325738437729,9.58362495831
583,-19.4009297937,0.120871997916,0.035194374585,9.58362495831
584,-19.3491882255,0.06693609582,0.00931890297579,9.58362495831
585,-19.4581556495,0.126055820016,-0.00669806389303,8.74941587378
586,-19.4300256997,-0.00484166279397,-0.0371385880704,8.33645504456
587,-19.450604876,0.134198316501,0.019695204168,9.12954404406
588,-19.3733406288,0.0820330021446,0.0405622232283,9.58362495831
589,-19.5203865202,0.0978035965507,0.0523394071714,9.58362495831
590,-19.3981817057,0.084744361238,-0.0114904578702,9.28263175723
591,-19.295219646,0.14189116046,0.0273544519253,9.12954404406
592,-19.0540968775,0.086190250955,-0.0374936033208,8.33645504456
593,-19.3357019877,0.0439581879313,-0.0265094061449,9.12954404406
594,-19.4324965494,0.00955365413579,-0.100784074741,7.93134141954
595,-19.3355326487,0.0776638273158,0.0239896723119,9.58362495831
596,-19.5386113623,0.148582492463,0.00246380029429,7.93134141954
597,-19.4021664126,-0.000761586651934,-0.00778972691476,6.80290253968
598,-19.1548687552,0.134129274718,0.021699393555,9.28263175723
599,-19.0167265893,0.0893878620001,-0.0320528593068,7.93134141954
600,-19.3480906522,0.0798195292573,-0.00405837080733,9.58362495831
601,-19.5053627359,0.12411505983,0.00525858104662,9.12954404406
602,-19.5844770977,0.0302170470679,-0.042759973907,8.74941587378
603,-19.2169786989,-0.0253835532898,-0.0800296251374,7.93134141954
604,-19.7014791955,0.240347178188,0.0722364267784,9.12954404406
605,-19.5920038153,0.103196929939,0.00993550433262,9.58362495831
606,-19.7323770855,0.234794896111,0.0798118966977,8.92270266892
607,-19.5642562174,0.0272345327644,-0.0141485471729,8.76555050406
608,-19.4567404622,-0.102348732783,-0.0716929977112,7.54336604505
609,-19.4253009115,0.0406034362701,-0.0311262854991,8.74941587378
610,-19.4036568977,-0.10266028728,-0.0129216924947,5.97855684288
611,-19.5479244699,0.134250590112,-0.0283354041476,7.54336604505
612,-19.7325486075,-0.0650526873503,0.0149947071094,6.3219035071
613,-19.3029707211,0.087576599548,-0.0180859517304,7.82178951994
614,-19.073283111,0.0488367691698,-0.0277299595589,7.82178951994
615,-19.2235601095,0.0755659276239,-0.00315797128035,9.58362495831
616,-19.2354535407,0.105394418698,0.0298007719569,9.58362495831
617,-19.1340696204,0.103078334919,0.072497910567,9.58362495831
618,-19.5540515955,0.259650874314,0.0740011933144,9.14361635095
619,-19.3699417876,0.0986610827224,0.0351715006464,9.58362495831
620,-19.389133008,0.0886454931213,0.0214323815775,9.58362495831
621,-19.3093406114,0.0874403939556,0.00874799364509,9.58362495831
622,-19.5023628205,0.102006482956,0.0915262842486,9.58362495831
623,-19.5235899534,0.135286432008,0.0631930895839,9.58362495831
624,-19.5326100453,0.0567098656849,-0.0829727470067,9.58362495831
625,-19.4937789695,0.0511692653321,-0.02267350145,9.58362495831
626,-19.5845778875,0.124790735015,0.083142984589,9.58362495831
627,-19.5131691651,0.110880261893,0.0273327086675,9.58362495831
628,-19.4770905048,0.08449868561,0.0326465783334,9.58362495831
629,-19.5342711696,0.12800616256,0.0624368162673,9.58362495831
630,-19.5362146225,0.111214853977,0.0270587148318,9.58362495831
631,-19.6419765332,0.108920825846,0.103330045866,9.58362495831
632,-19.6081817945,0.056839884625,-0.0854259665522,9.58362495831
633,-19.6367658272,0.135004722395,0.10987845498,9.58362495831
634,-19.3537104337,0.0869857280298,0.031357159754,9.58362495831
635,-19.6372712278,0.0918736924203,0.039911822962,9.58362495831
636,-19.5246931825,0.0971468636091,0.0629903815113,9.58362495831
637,-19.4929003386,0.0909794768401,0.122236185606,9.58362495831
638,-19.5423119459,0.114712858347,0.0337251392562,9.58362495831
639,-19.6407915126,0.118218574386,0.0959876938632,9.58362495831
640,-19.6374853983,0.0923723281235,0.0315056961696,9.58362495831
641,-19.4660239153,0.0728495556222,-0.0235712188216,9.58362495831
642,-19.5706456459,0.0640049454425,-0.0341898388783,9.58362495831
643,-19.4554841068,0.082142955459,0.0228912999939,9.58362495831
644,-19.3152616824,0.0757842774894,-0.0409992157151,9.58362495831
645,-19.5056644878,0.0905609687304,0.0431124788112,9.58362495831
646,-19.3758503416,0.0795372669978,-0.0279580729392,9.58362495831
647,-19.4521892367,0.0731904330286,0.0062855286711,9.58362495831
648,-19.1969806869,0.00440706579167,-0.0573359712607,8.33645504456
649,-19.4437973745,0.0640032628873,0.00195728528795,9.58362495831
650,-19.5708289106,-0.00696104461869,0.0950181898267,5.64489095683
651,-19.8850833039,-0.405802413581,-0.177516782037,5.80204312168
652,-19.381474788,0.036795082744,-0.0301863736811,7.47465180693
653,-19.2907982936,0.0847798715419,-0.00856956545679,7.93134141954
654,-19.6995576672,-0.0943501250952,0.183753216195,5.64489095683
655,-19.509777941,-0.162798604259,-0.0448273494632,6.3219035071
656,-19.446102643,0.0102449092827,-0.0359207111865,8.33645504456
657,-19.1914719802,-0.0953052198033,0.270165296089,5.64489095683
658,-19.6155953687,-0.137867599011,-0.0252331490487,7.29990925846
659,-20.145069213,-0.369908148075,-0.132546037141,5.80204312168
660,-19.5028104094,0.123949183054,-0.0887368145111,7.8653316702
661,-19.3722638893,-0.0818210181627,-0.00390835056541,7.54336604505
662,-19.6056262023,0.164570998501,0.0410527007189,9.12954404406
663,-19.3045757439,0.10375451419,-0.0217739471104,8.33645504456
664,-19.6656768778,-0.0436588237131,0.0126214488836,8.29127050784
665,-19.5879760919,0.031099804918,0.0142991561763,9.12547959237
666,-19.3753474485,0.074926249986,-0.0209433115607,7.93134141954
667,-19.2460147032,0.0718807202296,-0.0498164132863,8.17764285739
668,-19.5019435592,-0.0309551045309,-0.0590519057607,7.83458089523
669,-19.3470680424,0.0416137889695,-0.0222460275254,7.93134141954
670,-19.1611795661,0.038334754009,-0.0542768893268,8.74941587378
671,-19.4598208708,-0.00645800983004,-0.0659032245163,8.33645504456
672,-19.1629071422,-0.0158632064307,-0.0693236941461,8.17764285739
673,-19.2385514133,0.12374613384,-0.0596999403573,8.17764285739
674,-19.5072056104,-0.0359146935303,-0.0832987154086,6.76096144397
675,-19.2207518582,0.0400177545622,-0.0325778591605,8.33645504456
676,-19.1193204153,0.0493949270303,-0.020150890786,7.82178951994
677,-19.3742713125,0.07019301533,-0.0109609485902,7.93134141954
678,-19.276491062,0.0480692191337,-0.0336360406967,8.74941587378
679,-19.464438174,-0.0143324493214,-0.0662909747903,7.93134141954
680,-19.3409248617,0.118399048917,0.0665524909895,9.58362495831
681,-19.3185070738,0.129117090985,0.00428439270573,9.12954404406
682,-19.6345674639,0.133167880027,0.0607815114939,8.83855035697
683,-19.5399523491,-0.0512140256002,-0.0632984590773,8.74941587378
684,-19.4506949769,-0.0945706542971,-0.0762268688732,7.29990925846
685,-19.4196655087,-0.102453068084,-0.0733313067893,7.29990925846
686,-19.1934079453,0.123961810339,0.0121853641373,7.93134141954
687,-19.2883043838,-0.0749521693411,-0.0196052507979,7.64793860207
688,-19.2868258765,0.0282476615323,-0.0705752040407,9.58362495831
689,-19.5270264571,0.122842718509,-0.00290796534118,8.74941587378
690,-19.5399692099,0.121496701978,0.0184493576272,8.74941587378
691,-19.3951893025,0.18926065884,-0.096220672428,8.04013550694
692,-19.3171025864,-0.0127673749035,-0.0329001668232,7.82178951994
693,-19.7448616921,-0.360218024093,0.0264255125827,5.99262914977
694,-19.4635881195,0.0336585953712,0.00553868158161,7.93134141954
695,-19.5389176826,0.23089894919,-0.00993767216608,7.93134141954
696,-19.7309877781,-0.149751625977,-0.0286229760209,6.3219035071
697,-19.4721744823,0.107661810364,-0.0196158693423,7.47465180693
698,-19.0877618194,0.00118147958096,-0.0101432098126,8.17764285739
699,-20.0679172091,-0.211297869493,-0.00268826180357,5.97855684288
700,-19.7543929571,0.0785027938941,-0.0970696719192,6.86473152356
701,-19.2448911163,0.06331705876,-0.0544125943579,7.12662246332
702,-20.1186725165,-0.303204497422,-0.115456243445,5.80204312168
703,-19.210093833,0.0469509269614,-0.0183566091933,6.84321964585
704,-19.1597838527,0.103338695475,0.0440436355284,9.58362495831
705,-19.2360239196,0.149278271376,0.0414176667172,9.12954404406
706,-19.3963581114,0.0869921450395,0.00235572345995,9.58362495831
707,-19.250708926,0.133898526547,-0.0616667898861,8.59226370892
708,-19.5437211289,0.184876485936,-0.0107639122265,8.72205532466
709,-19.2714265377,-0.110190888875,-0.0548643808585,7.48655155163
710,-19.4987507793,0.132869040507,-0.0149272139833,8.33645504456
711,-19.5218822005,0.0427921451355,-0.0502002237935,9.58362495831
712,-19.1880027091,0.0263029524931,-0.0318733643288,7.5167353578
713,-19.8808553377,-0.0828886140012,0.123820535682,5.64489095683
714,-19.294470939,0.00821902226974,-0.0386869837532,7.29990925846
715,-19.4756717089,0.0525073684065,-0.0281322734008,7.26610717283
716,-19.2983819377,2.59682202399e-05,-0.0476855304565,7.82178951994
717,-19.5758621928,0.364162776732,-0.0171871585495,8.29127050784
718,-19.4186149853,0.0275356434913,-0.0337434443022,7.47465180693
719,-19.5058459004,0.039491769926,-0.0746457855765,8.17764285739
720,-19.3190941559,0.0333030635607,-0.0968554817096,8.33645504456
721,-19.4855513919,0.0200268887397,-0.0763277798843,9.58362495831
722,-19.355626474,0.206908841364,0.0221436680519,7.93134141954
723,-19.3020185803,0.00756469939164,-0.017774984424,8.74941587378
724,-19.301630899,-0.0131503415005,-0.0880745696257,7.29990925846
725,-19.0374334644,0.0941110787094,-0.0363448192119,7.17801435496
726,-19.6738596585,0.177549910816,-0.0779585255083,8.33645504456
727,-19.2353761166,0.107082727932,-0.0168460134022,9.12954404406
728,-19.5043547285,0.0638001614492,-0.0611084919617,9.58362495831
729,-19.3199734491,-0.0060063235971,0.0175999015306,6.84321964585
730,-19.3068472209,-0.0550478815048,0.114802009615,5.64489095683
731,-19.4243551175,-0.147579741861,-0.00834831303498,7.54336604505
732,-19.3872568818,0.0417167452586,-0.0567781800493,8.1179837127
733,-19.6536797778,-0.116505390075,-0.0152066740933,5.97855684288
734,-19.3167117316,-0.0746720689488,-0.097774263571,6.76096144397
735,-19.6149810926,0.00529368780903,-0.0227506931924,7.93134141954
736,-19.5636872588,0.0126545688518,-0.0467510397045,7.93134141954
737,-19.414472028,0.073784957347,-0.0381856469007,7.47465180693
738,-19.4229544579,0.0683399339225,-0.0662020492247,8.33645504456
739,-19.2969041625,0.0230671084905,-0.0254629076117,7.82178951994
740,-19.1673451514,0.0707422954172,-0.0142905472893,6.3219035071
741,-19.2263213775,0.1195858285,-0.0437827066076,7.93134141954
742,-19.3938359452,-0.0481849985425,-0.060404985335,7.29990925846
743,-19.269591544,-0.0125473373962,-0.0788920630149,7.93134141954
744,-19.5805838266,0.258538103626,-0.00735121168322,8.17764285739
745,-19.6212616745,-0.137790973373,-0.00819859698212,6.3219035071
746,-19.383891037,-0.0174657194711,-0.00346155722683,6.84321964585
747,-19.268756121,0.00287492295166,0.0982875472943,5.64489095683
748,-19.4187479477,0.0111943375698,-0.0215477674829,8.92270266892
749,-19.4791024929,-0.089339797194,-0.137381225337,8.33645504456
750,-19.552128923,0.0848645649633,-0.0375413979701,9.12954404406
751,-19.410708273,0.0629777745803,-0.0164417129398,9.58362495831
752,-19.4037605055,-0.208299962288,0.097430270733,5.64489095683
753,-19.3264505275,0.0793080307442,-0.0563198208472,7.54336604505
754,-19.4830793058,-0.113868526824,-0.0504754317764,7.29990925846
755,-19.4242859031,-0.0700450084725,-0.0236378324624,7.1691912653
756,-19.6896398037,0.179111936253,0.0372981423733,9.10934496209
757,-19.263775333,0.234860029341,-0.0238361857278,8.33645504456
758,-19.3738723935,-0.0472427226098,-0.00926581200013,7.12662246332
759,-19.7092670028,0.391564580695,0.0724693653199,9.00382231218
760,-19.4683531189,0.10290882365,0.00758614681001,8.74941587378
761,-19.5833333405,0.0655800386385,0.0203505313057,9.58362495831
762,-19.4225392087,-0.00241260402845,-0.0332169643577,7.94562329498
763,-19.8180556256,-0.396415117048,-0.143307786905,5.80204312168
764,-19.4591113461,-0.0458627470296,-0.0446357569475,6.76096144397
765,-19.1833798306,0.0668929771662,-0.016495829715,8.47624908333
766,-19.3841149437,0.0485374472284,-0.011316052025,8.74941587378
767,-19.6871778089,0.0982825016615,0.0557655159843,9.58362495831
768,-19.4559717957,0.0893201164328,-0.0482161090261,8.74941587378
769,-19.4532131415,0.0165867619649,-0.0534808937447,7.93134141954
770,-20.1463466383,-0.208609834064,-0.0413753587108,6.3219035071
771,-19.2945492413,0.0342821959762,-0.0239587213562,7.29990925846
772,-19.5640373432,-0.141264495139,-0.0943651357944,7.12662246332
773,-19.5462269282,-0.0908565851832,0.0311823774672,5.97855684288
774,-19.4294524202,-0.0179062227465,-0.0848158283363,6.78004887304
775,-19.5860381563,0.0665904033108,-0.0480975480781,7.93134141954
776,-19.3071554694,-0.0332490560726,-0.0525287390739,7.31664379107
777,-19.3269655519,-0.0487959946997,-0.070837785131,7.47465180693
778,-19.6488132207,-0.0626058780984,-0.0577079470849,8.6243983152
779,-19.4872975792,0.0674923179585,0.00568531239085,9.58362495831
780,-19.5117969843,0.0432633606814,-0.0178735147567,9.58362495831
781,-19.4151671814,-0.0922879993145,-0.0186269761418,6.62233200785
782,-19.4988421076,0.0707005502971,-0.0323548523598,8.59226370892
783,-19.4794752083,-0.0461298379596,-0.10857179783,7.87213152432
784,-19.5761348481,-0.0625017505099,-0.0469647548122,7.47465180693
785,-19.8335971301,-0.330707515833,-0.132530899729,5.80204312168
786,-19.7080928687,0.175044562808,0.0696292402513,9.12954404406
787,-19.7635556105,-0.0972401067307,-0.0382246216613,6.3219035071
788,-19.5396063642,0.121170876005,-0.00479699870024,8.74941587378
789,-19.2542059515,0.0631131353506,-0.02405321425,7.82178951994
790,-19.5459674605,-0.182431098229,-0.119056026049,7.41011449306
791,-19.2234346273,0.0905045847853,-0.0470226602056,7.94562329498
792,-20.0877266252,-0.216777278036,-0.00737289122406,5.97855684288
793,-19.6650253937,0.134481200647,0.0739488965426,9.58362495831
794,-19.4131750484,0.0757486425877,-0.0493774376958,8.33645504456
795,-19.6001269812,0.100120908737,-0.0433513001483,7.93134141954
796,-19.2755267434,-0.097029860066,-0.0155649591147,7.1691912653
797,-19.413045678,0.0418570478293,0.0123427889973,9.58362495831
798,-19.7333578987,0.126205060641,0.103498076028,9.58362495831
799,-19.3285838144,0.00783702133384,-0.0747317341125,7.93134141954
800,-19.6941089005,0.13369109225,0.072193026118,9.58362495831
801,-19.5736282207,0.117774993252,0.0613950559713,9.58362495831
802,-19.1765934782,-0.0436530192129,0.113834239661,5.64489095683
803,-19.5936672418,0.0950773794572,0.0718447776792,9.58362495831
804,-19.5139708589,0.0503791842202,-0.0649295190773,9.58362495831
805,-19.930242625,-0.0809412619682,0.106792218965,5.64489095683
806,-19.2665167182,0.0981059398494,-0.0218890561824,8.33645504456
807,-19.3580023003,0.132169188653,-0.0271376549057,8.47624908333
808,-19.2298422708,0.127684838863,0.013409822097,8.74941587378
809,-19.4552406755,0.152399813752,0.00883745406635,8.74941587378
810,-19.4110891824,-0.00802152060707,-0.0495710756212,7.12662246332
811,-19.7235544471,-0.189378337787,-0.0177788337647,6.3219035071
812,-19.3914993082,0.0519154372885,-0.0114793884584,8.33645504456
813,-19.4739942006,0.13763206094,-0.039293890178,8.74941587378
814,-19.407260755,0.0253960424817,-0.0669869364821,7.93134141954
815,-19.1533743003,0.00443325424563,-0.0271400803781,7.82178951994
816,-19.2773818329,-0.00492963140378,-0.069652401876,8.17764285739
817,-19.3324894693,0.114911228079,-0.0216302084794,7.93134141954
818,-19.5184069833,0.0148135394398,-0.0883617471288,8.47791280101
819,-19.4185342767,0.0206660542263,-0.0676735238168,8.29127050784
820,-19.4340177753,0.0604457127484,0.00358536546799,7.47465180693
821,-19.3411646916,0.101318410381,0.0485220402556,9.58362495831
822,-19.4807728987,0.0484711429518,-0.0833667700473,9.58362495831
823,-19.4502095081,0.0778763409121,0.00808189842972,9.58362495831
824,-19.4410519728,0.0855753354106,0.0126006861032,9.58362495831
825,-19.6686941163,0.192694923373,0.0340883293284,8.1179837127
826,-19.500994484,0.115349057603,0.025624699735,9.58362495831
827,-19.5140253674,0.107895136205,0.0347278896962,9.58362495831
828,-19.539117154,0.090784339508,0.107411770016,9.58362495831
829,-19.5825335653,0.272409088991,0.022738180353,7.40914399084
830,-19.6221991812,0.306953873283,0.0052552283565,8.19782560845
831,-19.6696683348,0.355312246684,0.0812758517808,6.63625220621
832,-19.5438797309,0.0903620224518,-0.0178467419017,9.58362495831
833,-19.4127503061,0.0775470884977,0.0216303145228,9.58362495831
834,-19.5943254753,0.105095107454,0.028726150824,9.58362495831
835,-19.8313277296,0.244813202275,-0.152528933892,8.73378224707
836,-19.5056122833,0.107093560558,0.0836463544544,9.58362495831
837,-19.3633780706,0.083761682805,0.0116008024522,9.58362495831
838,-19.4911005133,0.0944854063224,-0.00412602761592,9.58362495831
839,-19.5842975896,0.0428187158803,-0.0497073965764,9.00382231218
840,-19.6239757501,0.112874868125,0.0793189519458,9.58362495831
841,-19.5025497043,0.10408889741,0.0329539985594,9.58362495831
842,-19.4223563804,0.106743038264,0.0810002139478,9.58362495831
843,-19.7307312372,-0.20627737202,0.031027351765,6.3219035071
844,-19.5612915074,-0.0681706819429,0.127628401652,5.64489095683
845,-19.3169282961,-0.0525429403803,-0.114115181801,8.1179837127
846,-19.5052670034,-0.00343136682816,-0.0547471022238,7.12662246332
847,-19.4156696902,0.162356424409,0.0458371174184,8.74941587378
848,-19.391829242,0.0994630021459,0.0417821717688,9.58362495831
849,-19.4799969901,0.0905668775514,-0.0144080881441,8.74941587378
850,-19.4302752201,0.0784195997813,-0.0243205395821,9.58362495831
851,-19.5522852684,0.223181493485,-0.0268801941091,7.58080933863
852,-19.3744922864,-0.12576612449,0.105525300725,5.64489095683
853,-19.2003888774,0.0912937439796,0.0261297960499,9.58362495831
854,-19.3557481163,0.0499260444287,-0.0867736943444,8.33645504456
855,-19.5645663872,0.0657043594869,-0.0315650715192,9.58362495831
856,-19.6721322849,0.112186748484,0.0575686047954,9.58362495831
857,-19.6764444621,0.110083079649,0.0835554606918,9.58362495831
858,-19.4791657426,0.0811073669747,-0.00428278937695,9.58362495831
859,-19.5464845134,0.0788720318253,0.0591398501555,9.58362495831
860,-19.5623560037,0.109690532124,-0.00418063580646,9.58362495831
861,-19.5161265611,0.0764283357781,-0.00051579801219,9.58362495831
862,-19.6728477771,0.114620504208,0.0374148412891,9.58362495831
863,-19.4904151123,0.097695784852,-4.65191127965e-05,9.58362495831
864,-19.5212072351,0.0541423029287,-0.0244638187778,9.58362495831
865,-19.5391998121,0.110395970477,0.0402509107185,9.58362495831
866,-19.5948358358,0.22425575568,0.0430759913994,9.28263175723
867,-19.3947387881,0.0579897162261,-0.0577741119922,9.58362495831
868,-19.4688522924,0.0976563738905,0.0105356685729,9.58362495831
869,-19.4763909647,0.0977404402162,0.0354398266316,9.58362495831
870,-19.4971406724,0.0869333700108,-0.000200145106295,9.58362495831
871,-19.529073419,0.106192910377,0.0671150696314,9.58362495831
872,-19.5626006344,0.0732220083923,-0.00149388124996,9.58362495831
873,-19.5954887957,0.126631960202,0.018617087435,8.47508448067
874,-19.5207324513,0.0642393671134,-0.012213888424,9.58362495831
875,-19.4893645207,0.0592645970706,0.0487994149006,9.58362495831
876,-19.4469089073,0.103250868343,0.0583092470129,9.58362495831
877,-19.4942360027,0.212617639158,0.0445238016407,8.72205532466
878,-19.6931188208,-0.0771412291181,0.146061814473,5.64489095683
879,-19.2695042339,0.066822563408,-0.00904724907362,9.58362495831
880,-19.35847431,0.0645377821085,0.0119621065096,9.58362495831
881,-19.4067188532,0.126155182626,-0.0120086564044,8.74941587378
882,-19.6638251723,0.21042135154,0.0583168061959,9.12954404406
883,-19.6268815014,0.109856212562,0.074305399678,9.58362495831
884,-19.683698874,0.114848556685,0.0768141071136,9.58362495831
885,-19.4904664534,0.105187150361,0.0896050920432,9.58362495831
886,-19.4169212246,0.0770808486728,0.0194163548887,9.58362495831
887,-19.3335444608,0.118735359704,-0.0306873293855,8.33645504456
888,-19.3273681274,0.0595843845744,-0.0790402794386,8.33645504456
889,-19.5356689086,0.165967333198,0.00321021666287,8.83855035697
890,-19.3787391798,0.0566003897146,-0.0299258711046,9.58362495831
891,-19.1101254893,0.0749434207034,-0.0536350358479,8.74941587378
892,-19.5197880942,0.0821782449093,0.0233551452822,9.58362495831
893,-19.4300141505,0.0827727522389,0.0268960433536,9.58362495831
894,-19.6364794324,0.126412316414,0.047019060966,9.58362495831
895,-19.5275808948,0.100103536917,-0.00399525137168,9.58362495831
896,-19.4463396982,0.0865071102137,0.0381962210786,9.58362495831
897,-19.4095003892,0.113539451134,0.0550626954327,9.58362495831
898,-19.5130074153,0.0799349807111,-0.0109691468652,8.17764285739
899,-19.5496232572,-0.0190945314376,0.000952875417559,7.82178951994
900,-19.5956737235,0.185388006223,-0.00529554688212,8.74941587378
901,-19.5705205018,0.137220078864,0.033175139775,8.83855035697
902,-19.4747198462,0.0634884490727,-0.0383790541999,9.58362495831
903,-19.2180079153,0.0387447964953,-0.0681459199743,9.58362495831
904,-19.4420469598,0.0510564097558,-0.0334007032523,9.58362495831
905,-19.2339121505,0.108524245807,-0.00885273144772,9.58362495831
906,-19.4795626806,0.102383839464,0.00495583065816,8.76302775131
907,-19.2951761338,0.103874943762,0.00394734353985,9.58362495831
908,-19.2501224227,0.133319376143,0.050315238726,9.58362495831
909,-19.4376062102,0.0665139161691,0.0262175618836,9.58362495831
910,-19.5091480918,0.0820048094923,0.027179107896,9.58362495831
911,-19.4077883244,0.100281493071,0.0257381808527,9.58362495831
912,-19.4803799644,0.0871055435756,0.00127126980546,9.58362495831
913,-19.2668205152,0.0400427917795,0.0228263932599,5.64489095683
914,-19.4175039366,0.0577987565466,0.0243813174068,8.47624908333
915,-19.4510088493,0.0636938786519,-0.0239685219503,9.58362495831
916,-19.5544277743,0.020856033332,-0.00378396640373,9.58362495831
917,-19.1360070162,0.0734755989772,0.00695514528617,9.58362495831
918,-19.4409025183,0.0847362143806,0.0267493009742,9.58362495831
919,-19.4931882599,0.0786852544827,-0.0330802060376,9.58362495831
920,-19.4307073075,0.0799322064901,0.0269584320379,9.58362495831
921,-19.3962819006,0.0906387418419,-0.0125575255745,9.58362495831
922,-19.5303408525,0.0825810910495,-0.00558669180292,9.58362495831
923,-19.3182535146,0.0934053939592,-0.00557147353309,9.12954404406
924,-19.3348641723,-0.0938457990573,-0.075145009126,7.12662246332
925,-19.2521712703,-0.109379951913,0.180454586335,5.64489095683
926,-19.332771709,-0.0862638727227,-0.0778663619001,7.64793860207
927,-19.3781080461,0.208098525081,0.0127288227366,9.14361635095
928,-19.3438986953,0.0620985573974,-0.0381522786734,8.74941587378
929,-19.7463619814,0.122352253552,0.0908444351099,9.58362495831
930,-19.2281504126,0.0648813343691,0.0274324753984,9.58362495831
931,-19.5134321596,0.0268114332699,-0.0458337666045,8.10973279058
932,-19.3564988104,0.0814640823711,0.0361966742218,9.58362495831
933,-19.6927766279,-0.0453829507953,-0.066641871099,6.89959088008
934,-19.1247682425,0.0157875618741,-0.037932160306,7.82178951994
935,-19.4211644189,0.079170496085,0.0232551854432,9.58362495831
936,-19.4291842149,0.0751218109679,0.0156655173231,9.58362495831
937,-19.2147025206,-0.00403867280213,-0.0536987986571,7.93134141954
938,-19.3029584064,0.119363574729,0.000913585208036,9.12954404406
939,-19.5202986373,0.0723351540287,-0.00229006765874,9.58362495831
940,-19.5525211122,0.0788241711646,-0.0328811366244,9.58362495831
941,-19.4696541943,0.0771197117508,-0.0177852489141,9.58362495831
942,-19.3711184067,0.0573068602043,0.00104640588949,9.58362495831
943,-19.9254065367,-0.0861569961617,0.156715566973,5.64489095683
944,-19.3355550594,0.123981257636,0.0217681612165,8.74941587378
945,-19.4255476054,0.072366617548,0.0151704526023,9.58362495831
946,-19.4361687894,0.0861692733543,-0.000884862799681,9.58362495831
947,-19.3653543415,0.135739143352,7.3860608313e-05,9.12954404406
948,-19.0988435042,0.057109832823,-0.0156312307276,9.58362495831
949,-19.5902539882,0.0572106598179,-0.113902551009,9.58362495831
950,-19.4536990425,0.102810438064,0.0261521307703,9.58362495831
951,-19.4171663,0.0768869156653,0.0230837083363,9.58362495831
952,-19.5275298916,0.155940210389,0.00202485910513,8.74941587378
953,-19.4851455806,0.000912539712703,-0.0700962616715,8.74941587378
954,-19.3571012016,0.140608193371,0.00682209695128,8.33645504456
955,-19.4422952102,0.0972561621652,0.0169995589752,9.58362495831
956,-19.5657974556,0.118116550782,0.11168252749,9.58362495831
957,-19.4052085628,0.0765407867081,0.0166408724083,9.58362495831
958,-19.4741760816,0.00494389488084,-0.0182236390446,8.29127050784
959,-19.5079692401,0.127116322942,0.0635540628992,9.58362495831
960,-19.618196832,0.154011161655,0.0610612170809,8.83855035697
961,-19.4454959633,0.190033939177,-0.0239825620037,7.93134141954
962,-19.5664107078,0.090646877757,0.0296880832884,9.58362495831
963,-19.3872541666,-0.0911310060992,-0.0439354090658,6.3219035071
964,-19.272811422,0.0755171120371,0.0100636895087,8.74941587378
965,-19.4240373577,-0.0655336007901,0.122322380371,5.64489095683
966,-19.5748169615,0.0877556064793,0.0681800034288,9.58362495831
967,-19.4923394905,-0.0317969537898,-0.0791025186636,7.29990925846
968,-19.1618805219,0.0204439727039,-0.0303901909522,7.47465180693
969,-19.1482153807,-0.0217677689668,-0.0583528291877,7.47465180693
970,-19.6294089883,0.154370284528,-0.0274965375304,7.93134141954
971,-19.4875690521,0.135393303753,-0.00122038458042,6.84321964585
972,-19.6572744101,-0.0329548702318,-0.0101195354821,5.97855684288
973,-19.652464463,0.245817140003,0.0336990600979,8.17764285739
974,-19.4341590687,0.0834435627161,0.00797401468881,9.58362495831
975,-19.4947831764,0.0799583743269,-0.0403695753924,9.58362495831
976,-19.4011652003,0.0979148148322,0.0278780050442,9.58362495831
977,-19.5475354242,0.157647603119,-0.0121181711838,7.93134141954
978,-19.2499409029,0.0699723543524,-0.00718465693589,9.58362495831
979,-19.3632866595,0.117804775125,0.0428168082755,9.58362495831
980,-19.8540971457,0.326460787639,0.160736854749,9.12954404406
981,-19.4201738298,0.091684139259,0.00650274200149,9.58362495831
982,-19.3407140695,-0.0526009596115,-0.00940211037443,6.3219035071
983,-19.206067575,-0.0174167926003,-0.0513704942589,8.74941587378
984,-19.6682868106,-0.086746630597,-0.0401735569159,5.97855684288
985,-19.7900058544,-0.103724344853,-0.0536834123142,6.3219035071
986,-19.3121790165,-0.0160303717144,0.0264340279994,6.53423918999
987,-19.7836882334,-0.139106907219,0.0123843911394,5.97855684288
988,-19.4420684155,-0.0204438049572,-0.0452082725712,7.19981850191
989,-19.5474220235,-0.102959919909,-0.0294877319161,6.3219035071
990,-19.2265969296,0.106071547859,0.0132734996837,6.84321964585
991,-19.8249944407,-0.233540391343,-0.0475227980539,5.97855684288
992,-19.4308918633,0.0846408379009,-0.0147405689667,6.14861671196
993,-19.464210716,0.0465767548572,-0.0114660305617,7.82178951994
994,-19.4470491138,-0.0144146685453,-0.00679027029858,7.05366673521
995,-19.5311746971,0.0313232461219,-0.0598657334921,7.93134141954
996,-19.391422344,0.118832132164,-0.0080853399969,7.93134141954
997,-19.4233357193,0.183346187067,-0.00894573471161,7.93134141954
998,-19.5843902282,0.00655764257154,-0.0231963670537,7.93134141954
999,-19.4048266044,0.0748761478095,-0.0646648328011,7.93134141954
1000,-19.4605842155,0.0590160782739,-0.0206446212307,7.93134141954
1001,-19.5276632061,0.11316861408,0.0142941414587,9.58362495831
1002,-19.3968390488,0.102695023848,0.00256898855657,9.58362495831
1003,-19.3648116469,0.226609416382,0.0684732613382,9.12954404406
1004,-19.4846442574,0.0393764071679,-0.0991676115328,9.58362495831
1005,-19.3809349211,0.0827406528385,0.013422956952,9.58362495831
1006,-19.3805063722,-0.0974004617179,-0.0187037798041,8.29127050784
1007,-19.8567834148,-0.125013527253,-0.0195319052357,6.14861671196
1008,-19.3761384176,0.075315623916,0.00843481119379,7.47465180693
1009,-19.3892813656,0.135921646081,-0.0163310711526,7.93134141954
1010,-19.0985850094,0.119050905987,-0.0914512138621,7.31664379107
1011,-19.204805404,0.0343396615155,-0.0316386549891,7.93134141954
1012,-19.3887622406,-0.00217299247293,-0.0208977681355,7.54336604505
1013,-19.480884718,0.166573906212,-0.00647968203296,7.93134141954
1014,-19.5041368485,0.0787162858456,-0.0353451058658,7.1691912653
1015,-19.1491323936,0.0900256302552,0.0297427570862,9.58362495831
1016,-19.4086109086,0.0382986700431,-0.0215434809044,8.74941587378
1017,-19.3821438283,0.0943871576099,0.0241614173604,9.58362495831
1018,-19.4024754062,0.00936423906036,-0.025615068066,7.93134141954
1019,-19.2039569919,0.0807743559637,0.0122834159821,9.58362495831
1020,-19.5470290639,0.0671248880485,0.0178606663967,9.58362495831
1021,-19.4113290188,0.0752223589314,-0.0178154628025,8.74941587378
1022,-19.4675542502,-0.0429119070031,-0.0092752109138,6.84321964585
1023,-19.3199569235,0.0556695541247,0.0132799056131,9.58362495831
1024,-19.488475942,0.187394871849,0.0421706787452,8.74941587378
1025,-19.3011422362,0.0641755646252,-0.0661111037197,7.93134141954
1026,-19.6478234116,-0.00192155867386,-0.0490608657462,6.76096144397
1027,-19.1997037423,-0.0399216162237,-0.0212183404672,7.17801435496
1028,-19.407528252,-0.061494867243,-0.0936627147294,7.93134141954
1029,-19.4579928693,0.0523331990604,-0.0678977619812,8.1179837127
1030,-19.3262889644,0.101657297732,-0.0771359104726,7.5167353578
1031,-19.6011583354,0.138574546653,0.0846514667824,9.58362495831
1032,-19.6423856985,-0.139983704784,0.0293467419354,6.21272768932
1033,-19.5231805888,0.0674470544427,-0.0345059392858,9.58362495831
1034,-19.5201307424,0.0851081512803,-0.0250647126826,9.58362495831
1035,-19.5673230653,0.157514783307,-0.00360305691423,8.72205532466
1036,-19.5977445786,0.0982751294341,0.0258600200669,9.58362495831
1037,-19.3185122358,0.00322068667623,-0.00925046905413,7.93134141954
1038,-19.5249662772,0.143672447378,-0.0274555524384,7.93134141954
1039,-19.6019271073,-0.124717564531,0.209695429217,5.64489095683
1040,-19.455497696,-0.0472502172271,0.0207009811893,6.3219035071
1041,-19.1316564962,-0.0498452849415,0.0065576134769,6.3219035071
1042,-19.3894574471,0.129487041954,-0.0625962806452,8.33645504456
1043,-19.452049044,0.106868111265,-0.040853771176,7.93134141954
1044,-19.688108746,-0.234902251725,-0.0494588478575,6.14861671196
1045,-19.8702133292,-0.125648109121,-0.0581333617449,6.79618350333
1046,-19.2614334331,0.0813232258642,-0.0221250903427,8.17764285739
1047,-19.1261137341,0.0514463919033,-0.0573256598054,7.54336604505
1048,-19.2999271001,0.086938068716,-0.0598318179471,7.93134141954
1049,-19.3123740152,0.0947397489797,-0.00342940058994,8.33645504456
1050,-19.424076423,0.00110551574962,0.0200604817408,6.14861671196
1051,-19.3005573483,0.0724116569063,-0.00895984590615,8.106083968
1052,-19.5126491771,0.175696184773,-0.065759678779,8.33645504456
1053,-19.5124593363,0.0546820872829,-0.0506489919769,9.58362495831
1054,-19.3280398625,0.0212440271867,0.0100194293739,7.29990925846
1055,-19.3954525319,0.00865392020493,-0.0174886993076,6.84321964585
1056,-19.4826869933,-0.0761964212236,-0.0262566653214,6.40166290097
1057,-19.2920418464,0.103013470513,0.037868075614,9.58362495831
1058,-19.5843081006,0.0846109409137,-0.0333336008973,9.58362495831
1059,-19.2842746383,-0.115351384732,0.158696052673,5.64489095683
1060,-19.9216958538,-0.145544785107,0.205645684843,5.64489095683
1061,-19.9457126562,-0.078373739466,-0.0108327920578,6.54193704676
1062,-19.2199955965,0.0421059517919,-0.0406454523041,8.74941587378
1063,-19.4003510262,0.194277353889,0.039348241361,6.14861671196
1064,-19.333152783,0.215209758451,-0.0796064380166,7.54336604505
1065,-19.3702840111,0.00538467228394,0.0462173074623,6.84321964585
1066,-19.5561900414,0.0833451657181,0.00644796345479,9.58362495831
1067,-19.436528696,0.126310928748,0.0664557194414,9.58362495831
1068,-19.4338943305,-0.0277681496456,-0.0649874533498,7.54336604505
1069,-19.3490981471,0.0236129714313,-0.0212892042066,7.5167353578
1070,-19.6979601667,-0.0494263074402,0.0790389189724,5.64489095683
1071,-19.5561699935,0.0649646327941,-0.00661443706347,9.58362495831
1072,-19.2820785866,0.0785724845939,0.040884319816,9.58362495831
1073,-19.5222256702,0.090324981387,0.00712896848226,9.58362495831
1074,-19.4667721029,0.0790057403169,0.00677046380037,9.58362495831
1075,-19.6619932103,0.181066247746,-0.0306665139541,8.33645504456
1076,-19.1733620241,-0.0035224956352,-0.0640658667318,7.93134141954
1077,-19.56766072,-0.0782761247813,-0.0113206503598,7.12662246332
1078,-19.4264594951,-0.0557557624397,-0.0526529021993,7.12662246332
1079,-19.2468933738,0.0998219188811,-0.0484980523833,7.93134141954
1080,-19.2590979538,0.00097545857054,-0.0535780647784,8.33645504456
1081,-19.50314538,0.0795791495008,-0.0234809679098,8.74941587378
1082,-19.4432559253,0.153446767893,0.0339372419738,9.12954404406
1083,-19.3119150107,0.0505853508481,-0.0264240813616,8.74941587378
1084,-19.4666140315,0.219224554543,0.0386324754295,9.12954404406
1085,-19.3985107006,0.197257712341,-0.0244230401967,9.00382231218
1086,-19.4619185759,0.113768348951,0.00391092982094,9.58362495831
1087,-19.5685590663,0.0996924244055,0.00255899609806,9.58362495831
1088,-19.5737411468,-0.0486229119239,-0.0521045614432,7.93134141954
1089,-19.5021988306,0.033712736784,-0.0109672995053,7.47465180693
1090,-19.4271459498,0.092684142555,-0.0409347990202,7.93134141954
1091,-19.5649353162,0.0614303332537,0.0131737280132,9.58362495831
1092,-19.5379395571,0.0675536490716,-0.102233032563,7.54336604505
1093,-19.4083586947,0.187444616258,0.0354547035784,8.106083968
1094,-19.0793685482,0.0112364956103,0.01338825165,6.84321964585
1095,-19.3808053724,-0.0804379249771,-0.107377258795,7.48655155163
1096,-19.542719249,-0.031089605725,0.0160439450694,7.93134141954
1097,-19.4549629148,0.00314349186344,-0.029716308261,7.82178951994
1098,-19.4931722712,0.0998629282869,0.0178392376596,9.58362495831
1099,-19.3959021313,0.102690980176,0.0627489236176,9.58362495831
1100,-19.5043044261,0.117889819814,0.070373462602,9.58362495831
1101,-19.4692200967,0.146654844086,0.0594666156924,9.58362495831
1102,-19.4481227922,0.19856180911,-0.0403077140477,7.93134141954
1103,-19.4470959913,0.0576927382989,-0.0305451589767,9.58362495831
1104,-19.3805526202,0.0769291790344,-0.00262826049596,9.58362495831
1105,-19.5416757118,0.216004715839,0.0195154431208,7.93134141954
1106,-19.5683924678,0.115193299271,0.0771800917006,9.58362495831
1107,-19.4196716735,0.0475793604629,-0.0275552719085,9.58362495831
1108,-19.559806412,0.0761570711552,0.0361978848437,9.58362495831
1109,-19.5293491156,0.0754877384941,0.0163168270652,9.58362495831
1110,-19.354773002,0.0828963445224,0.0430849591615,9.58362495831
1111,-19.4806594637,0.0432256232077,-0.0121846093333,9.58362495831
1112,-19.5435601823,0.104148468835,0.0370624481847,9.58362495831
1113,-19.4209273237,0.127839553482,0.0179508860257,9.14361635095
1114,-19.5819007099,0.0837642757711,0.0281084837853,9.58362495831
1115,-19.5736392455,-0.0187992364702,-0.0828863560045,7.12662246332
1116,-19.4312400506,0.171794482849,-0.016028470799,7.93134141954
1117,-19.3117052131,0.0775703697917,0.0120902626281,9.58362495831
1118,-19.4994480054,0.0654365917743,-0.0321166244884,9.58362495831
1119,-19.7811708338,0.349042500016,0.0115787085438,8.72205532466
1120,-19.4388099216,0.0825450231262,0.014405447458,9.58362495831
1121,-19.5625816561,0.093845613123,-0.0310464908682,9.12954404406
1122,-19.3644722054,0.0971830418532,0.0178805322276,9.14361635095
1123,-19.5877539305,0.127571128008,0.0395223944722,9.58362495831
1124,-19.5004398658,0.234980074302,-0.0323119709822,9.12547959237
1125,-19.6266371215,0.159675229388,0.0773655106083,9.58362495831
1126,-19.558737574,0.0976196061649,0.0295775059918,9.58362495831
1127,-19.4724731065,0.0965723929201,0.0058796285352,9.58362495831
1128,-19.5713710715,0.0886238983252,0.0510146775948,9.58362495831
1129,-19.5187640915,0.106205592978,0.0315418222209,9.58362495831
1130,-19.4544539117,0.134221850544,0.0281377214816,9.14361635095
1131,-19.291800903,0.12538869022,0.0112218339217,8.47624908333
1132,-19.5901555758,0.109040689302,0.0204568697427,9.58362495831
1133,-19.5004906203,0.0879286957649,-0.000255635436526,9.58362495831
1134,-19.5742843564,0.128225417271,-0.0121965477415,9.58362495831
1135,-19.5643347199,0.221176904331,0.0134254534798,8.72205532466
1136,-19.5024291068,0.103927216076,-0.00700233629644,7.93134141954
1137,-19.3100177192,0.0810799313885,0.0224448271825,9.58362495831
1138,-19.6292120903,0.00336697277234,-0.0102451327577,7.54336604505
1139,-19.5041400236,0.245349838132,0.0246812765047,9.12547959237
1140,-19.3875143262,0.0275369092858,-0.0459534105442,8.33645504456
1141,-19.4812613407,0.0171385137842,-0.0518908346598,7.82178951994
1142,-19.3385028673,0.0465710832697,0.0413901102438,9.58362495831
1143,-19.5114752367,0.0970718961966,-0.000791665785574,9.58362495831
1144,-19.3800709842,0.0774192207803,-0.00757235130436,9.58362495831
1145,-19.4573888584,0.00501668771936,-0.125758594297,9.58362495831
1146,-19.3725961287,0.0370882058308,-0.0322783038299,8.72205532466
1147,-19.6533928915,0.26324205109,0.0687527147759,9.28263175723
1148,-19.153397303,0.0424268804496,-0.0101047214667,9.12954404406
1149,-19.3567215378,0.0584936848499,-0.00515504853426,9.58362495831
1150,-19.3896703504,0.0991517887276,0.0530679475419,9.58362495831
1151,-19.6840329646,-0.0463302465624,0.123157389973,5.64489095683
1152,-19.4489505296,0.129407908369,0.0230984939862,9.12954404406
1153,-19.4164841759,0.07707903978,0.00762665503585,9.58362495831
1154,-19.5407022093,0.0785322529007,0.00849495850815,9.58362495831
1155,-19.5314042037,0.258177938251,0.00704497981045,8.33645504456
1156,-19.5622158262,0.0332444833788,-0.0436551628886,5.97855684288
1157,-19.3675139137,0.083580981473,-0.0158046373708,7.93134141954
1158,-19.1966720732,0.111122747146,-0.023714153298,8.74941587378
1159,-19.1846671716,-0.00435216680392,0.0942433688817,5.64489095683
1160,-19.4661481345,0.0536998648827,0.0107710410435,9.58362495831
1161,-19.3857103525,0.0642171954971,-0.0037684784934,9.58362495831
1162,-19.4935264804,0.0103640490969,-0.00990001154432,7.93134141954
1163,-19.6219834515,0.128470904054,0.0778505596488,9.58362495831
1164,-19.5881546592,-0.0580783844491,-0.0922832539234,7.12662246332
1165,-19.445243925,-0.0525635362427,-0.105013312045,6.89959088008
1166,-19.6936152871,-0.105176774736,0.219707776205,5.64489095683
1167,-19.2600590364,0.0475343080371,-0.040650875726,7.93134141954
1168,-19.6239506443,0.194897014754,-0.0659502857538,7.54336604505
1169,-19.3182810364,0.0508493349418,-0.0608836262172,7.93134141954
1170,-19.2809785827,0.0183975861395,-0.0358938286933,7.82178951994
1171,-19.4692576334,0.0312994491088,-0.0298828535308,7.93134141954
1172,-19.3295796674,0.00443561424842,-0.0623192068286,7.69267987958
1173,-19.5616618595,0.133706490268,0.0947501810383,9.58362495831
1174,-19.4470505215,-0.0978332283878,0.016672194554,6.3219035071
1175,-19.6455343858,-0.170254001131,-0.0665915215021,7.12662246332
1176,-19.4978772408,0.00904858512833,-0.0400759164159,7.12662246332
1177,-19.7221300522,0.110028576603,-0.0178197903392,6.84321964585
1178,-19.361443778,0.0755824301817,0.0133379333185,6.3219035071
1179,-19.3905011898,-0.0131330306154,-0.0389250012086,7.64793860207
1180,-19.4754638434,-0.0167376155472,-0.101928635899,8.1179837127
1181,-19.2321515423,-0.0700648667468,0.0604607337304,5.64489095683
1182,-19.482518889,0.0816562320143,-0.0313809306624,7.93134141954
1183,-19.5145414903,0.0953023368819,0.0813614873112,9.58362495831
1184,-19.4024251689,0.00979329947046,-0.0527280821274,7.12662246332
1185,-19.3192151357,0.104181376128,0.00946054160339,8.74941587378
1186,-19.4858221272,0.104793427168,0.0111143623297,9.58362495831
1187,-19.7030267924,0.126656991558,0.0768047056525,9.58362495831
1188,-19.373923411,0.0376633504072,-0.0143567157103,8.33645504456
1189,-19.324783257,0.135894891512,0.016810404601,9.12954404406
1190,-19.3139868721,0.132447743766,-0.0208849963908,7.93134141954
1191,-20.0801493472,-0.292895063642,-0.134565214824,5.97855684288
1192,-20.0569122583,-0.240900643977,-0.0604814970125,6.3219035071
1193,-19.2509633634,0.0930534934635,-0.0402669770863,7.54336604505
1194,-19.2550786871,0.0195108168824,-0.0548786898259,7.93134141954
1195,-19.5545337298,-0.0683771263979,-0.0970870579809,7.12662246332
1196,-19.3031007909,0.0812034844801,-0.035925264978,7.82178951994
1197,-19.4029598781,-0.100061751948,0.284936513057,5.64489095683
1198,-19.7349326303,0.0982707928151,-0.055625099011,7.17801435496
1199,-19.3516667543,0.0175779204365,-0.016938108231,8.33645504456
1200,-19.5102400883,0.145385653229,0.0263511658252,8.74941587378
1201,-19.4684927042,0.0586414673939,-0.0422773087587,9.58362495831
1202,-19.2827427159,0.0652492078321,-0.00637504916722,9.58362495831
1203,-19.4842842105,0.0520814427958,0.0161213151582,9.58362495831
1204,-19.6169400379,-0.140138160777,-0.0669241698871,5.97855684288
1205,-20.0834050323,-0.407587005871,-0.199003933084,5.80204312168
1206,-19.7439880151,-0.15368962018,0.0337543569401,6.62233200785
1207,-19.4925344877,0.0694579352103,0.0225198699225,9.58362495831
1208,-19.5532817991,0.157426244972,0.00270563172122,8.72205532466
1209,-19.6814622961,0.117928884196,0.0466943643986,9.58362495831
1210,-19.5343272044,0.0796040973713,0.00512998817132,8.74941587378
1211,-19.2916429922,0.0848338840075,-0.0584000880324,6.86473152356
1212,-19.3000222797,0.133079038339,-0.0467549280688,7.82178951994
1213,-19.5672131123,0.0475879593136,-0.0219275466911,7.29990925846
1214,-19.3058719167,0.076426493066,-0.0131296532224,8.74941587378
1215,-19.4350070756,0.0348948606342,0.0275112691753,8.33645504456
1216,-19.5111393648,-0.09624994856,-0.0742958247802,7.12662246332
1217,-19.438632505,-0.0705594620747,-0.0784493248603,6.76096144397
1218,-19.1716867303,0.0746553548568,0.00774662333516,9.58362495831
1219,-19.4808360239,0.0930784582379,0.0110572745807,9.58362495831
1220,-19.4893836946,0.0700741073259,-0.0142138172251,9.58362495831
1221,-19.4757647571,0.188089941374,0.0439145287335,9.14361635095
1222,-19.618356457,0.109255753317,0.0378868389521,9.58362495831
1223,-19.1869104341,0.151106790763,-0.0131971409984,7.93134141954
1224,-19.3382862859,-0.029162826924,-0.0411408625716,7.93134141954
1225,-19.3183611326,0.116517629612,-0.0675357229336,8.33645504456
1226,-19.333335019,-0.0910955211516,0.215836778263,5.64489095683
1227,-19.4546632621,0.127260745095,-0.0129412607576,7.93134141954
1228,-19.9316607581,-0.0532725007168,0.113423733651,5.64489095683
1229,-19.7187952461,-0.0392245756794,0.0782663338773,5.64489095683
1230,-19.4650292095,0.23896372834,-0.00450007392087,7.47465180693
1231,-19.3755151991,0.036171937949,-0.0158315893822,7.93134141954
1232,-19.4900846259,0.103892853381,0.00387270268645,8.83855035697
1233,-19.5173764704,0.115071220207,0.04168492479,9.58362495831
1234,-19.2916579271,0.00149072913613,-0.0380151408925,7.93134141954
1235,-19.4558119608,-0.028922853592,-0.029973988083,7.12662246332
1236,-19.352116365,0.094560282339,-0.0534601306749,7.17801435496
1237,-19.2674229427,0.045033750272,-0.0548207178052,7.93134141954
1238,-19.5343912359,-0.190578196665,-0.0248973225772,6.3219035071
1239,-19.1408604947,-0.0310405910916,0.0436391685804,5.64489095683
1240,-19.1921452253,0.0331176915452,-0.0392273923772,7.47465180693
1241,-19.5309501839,-0.0105568139697,-0.0349697021202,7.12662246332
1242,-19.3139739578,0.0864793375292,-0.0280966365174,7.47465180693
1243,-19.3169747936,0.0484748050079,0.00566740547158,6.84321964585
1244,-19.5858054624,-0.0140361242975,-0.0655679642209,7.12662246332
1245,-20.2568419798,-0.13609595057,0.196596374014,5.64489095683
1246,-19.4085151981,-0.0232165523777,0.0525265576369,5.64489095683
1247,-19.5425527416,0.0548325080949,-0.0319813206041,9.58362495831
1248,-19.6319250545,-0.221816899375,-0.0200518646323,5.97855684288
1249,-19.7047616921,0.0252672654531,-0.0554869964867,6.76096144397
1250,-19.3740056759,0.174313584442,0.00161489750261,9.12954404406
1251,-19.3455498077,0.0521661070658,-0.0267073659921,8.74941587378
1252,-19.3857551248,0.0465058540838,-0.0534384184191,7.93134141954
1253,-19.479937172,-0.0501941423865,-0.0760727571097,7.12662246332
1254,-19.683687702,-0.0291914982384,0.00333864976577,6.84321964585
1255,-19.8404915494,-0.0989826210761,0.0275246444014,5.97855684288
1256,-19.3706383134,0.0245686579561,-0.0321906883993,7.93134141954
1257,-19.4645377718,0.0257522628654,-0.00845527907857,6.3219035071
1258,-19.5981097648,0.00613462729041,-0.0115053483767,7.93134141954
1259,-19.6675161373,-0.0649824988774,-0.0974225887232,7.12662246332
1260,-19.508629298,0.0113266793799,-0.0518810653064,8.33645504456
1261,-19.3921342924,0.0165854083259,-0.0179597051815,6.84321964585
1262,-19.4807596723,0.165929545378,-0.000286725673749,8.83855035697
1263,-19.4107218267,-0.0981110369569,0.208095465013,5.64489095683
1264,-19.4524564677,0.0304888029163,-0.0382568513841,7.93134141954
1265,-19.4661437785,0.108158459537,0.0263697649632,9.58362495831
1266,-19.3814951324,0.0872455379146,-0.0397698501109,7.8653316702
1267,-19.3715939551,0.0731043653386,-0.00434158359626,8.74941587378
1268,-19.7070010987,0.1192757963,0.132663852692,9.58362495831
1269,-19.4702110765,-0.0814114222351,-0.0580701641419,7.29990925846
1270,-19.409984238,-0.0092502013019,-0.0488908256165,7.93134141954
1271,-19.889238824,-0.168531009386,0.00172962111981,6.3219035071
1272,-19.2281933803,0.0959380319826,-0.047021467599,7.93134141954
1273,-19.4310924388,0.0726324439854,-0.0348416756356,8.74941587378
1274,-19.4673131879,0.111780037312,-0.00425273295906,8.72205532466
1275,-19.2252440152,0.0503567291323,-0.0749114256105,8.33645504456
1276,-19.2007406354,0.000322846783298,0.0153026583136,6.84321964585
1277,-19.7811654916,-0.016877130422,-0.0759796774883,7.64793860207
1278,-19.4937845883,0.0735894881744,-0.0654069668138,7.29361946074
1279,-19.2713734706,-0.0695605203447,-0.0574902220914,7.12662246332
1280,-19.3708711978,-0.107218507284,0.186412104613,5.64489095683
1281,-19.3696003426,0.122571899169,0.00660219996031,9.12954404406
1282,-19.5521608183,0.176140393474,-0.0334495350392,8.33645504456
1283,-19.3212532192,0.0423630094189,-0.0246934656851,9.58362495831
1284,-19.1988682287,-0.0470058625485,0.177105666298,5.64489095683
1285,-19.3268557078,-0.0345353088133,-0.0455648511386,7.93134141954
1286,-19.3367546598,-0.115810835902,-0.00378520199744,7.54336604505
1287,-19.7797663541,-0.237516171825,0.00221562554411,6.14861671196
1288,-19.5721008281,0.178402628578,0.0562296524562,9.12954404406
1289,-19.4948926362,0.0938818911427,0.0428682107428,9.58362495831
1290,-19.5338370297,-0.0670799848467,0.0692390147294,5.64489095683
1291,-19.5349108307,0.00618759151604,-0.0577805730537,7.12662246332
1292,-19.3395738006,0.0717590877917,-0.0253871233971,8.74941587378
1293,-19.3008440151,0.00963023571943,-0.0283122214948,7.5167353578
1294,-19.6141660963,0.211707661593,0.0461614299917,9.12954404406
1295,-19.7760528685,-0.195973166138,0.151090501307,5.64489095683
1296,-19.7742847987,-0.277563494994,-0.0885347812235,5.80204312168
1297,-19.4893362082,-0.0720315468,-0.03716853277,7.12662246332
1298,-19.2905267274,0.0871235164767,0.0245972342981,9.58362495831
1299,-19.5557269818,0.0656630736202,-0.0473174581406,9.58362495831
1300,-19.3023138513,0.083654262876,0.00530801733008,9.58362495831
1301,-19.4604031428,0.0900058306484,0.0233096294402,9.58362495831
1302,-19.3040035519,-0.034822109637,-0.0380019291072,6.86473152356
1303,-19.5900848609,0.164873343584,0.00628074136927,8.74941587378
1304,-19.4834256587,0.142575038572,0.00664823334442,8.74941587378
1305,-19.3555261014,0.119173394709,-0.0186448354281,7.93134141954
1306,-19.2421417074,0.0731910489268,-0.00484119491108,9.58362495831
1307,-19.5487104225,0.139644603143,0.00579094858406,9.12954404406
1308,-19.403404862,0.0910400394133,-0.00409608401744,9.58362495831
1309,-19.5820711556,-0.0377183117066,-0.0897645588594,7.54336604505
1310,-19.4815111337,-0.0662381480151,-0.07690523385,7.12662246332
1311,-19.5136524925,-0.132313252992,0.222661313924,5.64489095683
1312,-19.6293371383,0.284647958699,0.00554425458751,8.07210387656
1313,-19.5622200881,0.066530402121,-0.00155665362626,9.58362495831
1314,-19.5633543815,0.0248016405817,-0.158352283064,9.58362495831
1315,-19.3072302186,0.143642490203,-0.0158871962873,7.93134141954
1316,-19.4476479526,0.00385323240373,-0.0234448898759,7.97110335447
1317,-19.2469289408,0.100103238635,-0.0326447713076,8.33645504456
1318,-19.5452219903,-0.0751604401484,-0.0570134551934,6.3219035071
1319,-19.2100844017,0.0304315931223,-0.0356204674036,7.82178951994
1320,-19.4140692823,0.0525184188945,-0.0348498112268,7.93134141954
1321,-19.6502749541,-0.0817296068315,-0.059784419448,7.47465180693
1322,-19.4278791243,0.0791846409477,0.0238175807374,9.58362495831
1323,-19.5522849413,0.00723565108116,-0.0317454980747,6.84321964585
1324,-19.5182463048,0.0344787381007,-0.00254656029144,8.6243983152
1325,-19.494955736,-0.00569094257242,-0.0130308527123,7.93134141954
1326,-19.6404740185,0.188237870111,0.0840676966587,7.41542100736
1327,-19.5060513524,0.167719498543,0.0303622871121,5.97855684288
1328,-19.1232954547,0.134898695123,-0.0459385141514,7.12662246332
1329,-19.4953200163,-0.102632051418,-0.00843297008496,6.3219035071
1330,-19.5036008437,-0.0735494352875,0.00957355023572,6.3219035071
1331,-19.4831177576,-0.0516439159372,-0.0321386295245,7.31664379107
1332,-19.6403429579,-0.0124840281317,-0.0133060330924,6.53423918999
1333,-19.3503305606,-0.101559011176,0.129859400039,5.64489095683
1334,-19.4299917421,-0.0291591393717,-0.0259444029592,7.93134141954
1335,-19.5193107495,-0.133218137941,0.0594835079308,5.64489095683
1336,-19.2600459242,0.0685355858225,0.0055830309216,9.58362495831
1337,-19.5161477707,0.0782389038945,-0.0229553132052,7.47465180693
1338,-19.529321924,-0.103607957561,-0.0204039847156,6.76096144397
1339,-19.3685650463,-0.0228132941198,-0.0695943644823,7.64793860207
1340,-19.7673723999,-0.0831564004668,-0.0672208543833,7.04890471461
1341,-19.6891875597,0.218322959012,0.0881564460593,9.14361635095
1342,-19.883441439,-0.0699414160263,0.0710847776582,5.64489095683
1343,-20.1338844445,-0.142387662767,0.167530897839,5.64489095683
1344,-19.425008328,0.108728979308,0.00134355314283,9.58362495831
1345,-19.2146301333,0.0105396895189,-0.0410186914988,7.82178951994
1346,-19.6050293331,0.0951646589595,0.0930659369323,9.58362495831
1347,-19.1728360529,0.0224769606317,-0.0632268840772,7.82178951994
1348,-19.440055901,0.0757298037588,7.62258127684e-05,9.58362495831
1349,-19.3881148541,-0.179140562952,-0.0253054447776,5.97855684288
1350,-19.2278129678,0.0154511464955,-0.0655355311359,7.82178951994
1351,-19.5319905398,0.0833744295467,0.0433762183605,9.58362495831
1352,-19.3272336189,0.0770847414025,-0.0625046008904,7.94562329498
1353,-19.4600824626,0.0850045836002,0.00184068558094,9.58362495831
1354,-19.4187948868,0.0164439478216,-0.0570342893763,8.106083968
1355,-19.5620472297,0.152778963226,0.0113507357737,8.92270266892
1356,-19.510046645,0.135371328625,0.0368661264476,9.58362495831
1357,-19.5826331629,0.0826323270114,0.0189879486485,9.58362495831
1358,-19.4622452312,0.0212816803025,-0.0562692339515,8.1179837127
1359,-19.4409384349,0.0896174195691,0.0538556010255,9.58362495831
1360,-19.5643902305,0.177452981044,0.0432265764241,8.60653079457
1361,-19.525250729,0.0765755491072,0.0228659816347,9.58362495831
1362,-19.3768375894,0.104370360563,0.0809360076424,9.58362495831
1363,-19.6808922093,0.142522672769,0.108900667974,9.58362495831
1364,-19.4927346302,0.116483999741,0.0246080904176,9.58362495831
1365,-19.6356979671,0.120624431688,0.0315252813838,9.58362495831
1366,-19.592587285,0.113211740036,-0.0557968874595,8.61825771698
1367,-19.6631210709,0.0998760714715,0.0656560927503,9.58362495831
1368,-19.4659644221,0.0987059525264,0.0329842502291,9.58362495831
1369,-19.6543380813,0.132213908405,0.0659456078516,9.58362495831
1370,-19.3012704585,0.204845361736,-0.0289679603707,7.54336604505
1371,-19.5474675968,0.127522958483,-0.0318855483039,7.47465180693
1372,-19.4105736419,-0.0809831618591,-0.0205136159874,6.84321964585
1373,-19.6543807075,-0.0987061994688,-0.0600975157246,7.64793860207
1374,-19.6982104601,-0.102171754605,0.237625901179,5.64489095683
1375,-19.3745279396,-0.117113922227,0.148239845949,5.64489095683
1376,-19.5478273179,-0.138222691838,0.158622666324,5.64489095683
1377,-19.3944405372,0.0871114874939,-0.0124855498163,7.29990925846
1378,-19.3158400411,-0.0221330192526,-0.0432169766891,7.12662246332
1379,-19.9782330083,-0.243081887091,-0.101831957292,5.80204312168
1380,-19.8700816194,-0.23479302362,-0.00171579848239,5.97855684288
1381,-19.4675250361,0.120331430515,-0.0787623898196,6.76096144397
1382,-19.2009284168,-0.00312437721547,-0.0148236777951,7.82178951994
1383,-19.3340817738,0.148439454022,0.0186912952369,8.74941587378
1384,-19.6028375904,0.101029101731,0.0404394074232,9.58362495831
1385,-20.011254659,-0.328819859383,-0.126221715549,5.80204312168
1386,-19.7220298601,-0.0624476732436,-0.0533361922574,6.3219035071
1387,-19.9959322029,-0.308784477141,-0.0976875211809,5.80204312168
1388,-19.7162713177,-0.0713468898102,0.180034186177,5.64489095683
1389,-19.8021095199,-0.268607339162,-0.0662121753109,6.14861671196
1390,-19.8304295175,-0.396044703706,-0.134554395869,5.80204312168
1391,-19.5645100208,0.10452255899,0.0576872469521,9.58362495831
1392,-19.7878484763,-0.0469831436981,0.0483676706945,6.64095807256
1393,-19.9394086413,-0.413863404939,-0.163389798555,5.80204312168
1394,-20.10422264,-0.317712012754,-0.0910997865166,5.80204312168
1395,-19.5648507978,-0.137925308259,0.388771301636,5.64489095683
1396,-19.432202017,-0.161835076418,0.199706035779,5.64489095683
1397,-19.3385882501,-0.23562910328,-0.0988678940692,6.79618350333
1398,-19.6711081395,-0.114991237551,0.290059832192,5.64489095683
1399,-19.4389685586,-0.110894901529,0.0864126341013,5.64489095683
1400,-19.933413904,-0.356119736407,-0.126830533385,5.80204312168
1401,-20.2574220827,-0.376028106873,-0.106445825087,5.80204312168
1402,-20.075454036,-0.32650706687,0.0113996264616,5.97855684288
1403,-19.7449736174,-0.149603594024,-0.0125820335904,5.97855684288
1404,-20.0697273563,-0.147670728669,0.0126791481804,5.97855684288
1405,-19.9494531031,-0.254967178418,-0.0355411777621,5.97855684288
1406,-20.1695523684,-0.369223637792,-0.112986802909,5.80204312168
1407,-20.1829416891,-0.242501202419,-0.0718588220619,5.97855684288
1408,-19.9081277542,-0.375276756564,-0.144943642361,5.80204312168
1409,-20.1740932851,-0.278027927876,0.0473626712881,6.14861671196
1410,-20.1942596177,-0.328963739492,-0.122685523423,5.80204312168
1411,-19.8599496435,-0.305000775486,-0.111243475421,5.80204312168
1412,-19.8289827553,-0.26404635256,-0.0926484881041,5.80204312168
1413,-19.7582144986,-0.2991195968,-0.129307085406,5.80204312168
1414,-20.020770355,-0.394619029748,-0.11738757141,5.80204312168
1415,-20.0171616662,-0.368049497165,-0.101880405082,5.80204312168
1416,-19.7470396542,-0.426852475004,-0.193571059164,5.80204312168
1417,-19.9204001203,-0.374692670826,-0.139237330507,5.80204312168
1418,-19.868475288,-0.221769160793,-0.0417291138998,5.80204312168
1419,-20.1788325679,-0.463508845133,-0.131109491727,5.80204312168
1420,-19.6868385603,-0.136852859229,0.282281913779,5.64489095683
1421,-19.9156019112,-0.229372879691,-0.0505091793972,5.97855684288
1422,-19.3727673936,-0.10827849132,0.172020744111,5.64489095683
1423,-20.1306753956,-0.112939252288,0.177041171979,5.64489095683
1424,-19.6471839735,-0.103676284136,0.150431191358,5.64489095683
1425,-20.0425856169,-0.365895459902,-0.117586867027,5.80204312168
1426,-19.5659250135,0.100816912226,0.0577255097962,9.58362495831
1427,-19.4490047803,0.202141545558,0.0416682646422,9.12954404406
1428,-20.0679971427,-0.316482232956,-0.0306469074323,5.97855684288
1429,-19.2480638919,-0.086332734847,0.128125510014,5.64489095683
1430,-19.3766182955,0.185207819764,0.0717187343987,9.12954404406
1431,-19.5480748827,0.063472109779,0.0211460202449,9.58362495831
1432,-20.0845385684,-0.263462101157,0.029828900782,5.97855684288
1433,-20.0650814978,-0.36623079613,-0.168928656542,5.80204312168
1434,-19.5327246053,0.18647901981,0.0334595225797,9.12954404406
1435,-19.887052472,-0.40101844111,-0.0753903046315,5.97855684288
1436,-20.0928380233,-0.419494767097,-0.167557545468,5.80204312168
1437,-19.6777327516,-0.143164055231,0.129275173243,5.64489095683
1438,-19.6540906351,0.182339361084,0.0304022109294,8.72205532466
1439,-19.3931849411,0.0965833375415,0.00468895461267,9.58362495831
1440,-20.293283089,-0.267551746664,-0.125806682794,5.80204312168
1441,-20.0724237341,-0.128923893479,0.17910503325,5.64489095683
1442,-19.3410539186,-0.0739878826951,0.0696300420856,5.64489095683
1443,-19.5411277277,0.057253508939,-0.03487555025,9.58362495831
1444,-19.5680121347,0.0842410831146,0.0450650809287,9.58362495831
1445,-19.5144883273,0.0666693993911,-0.0122930761045,9.58362495831
1446,-19.5377254278,0.0452811660879,-0.0767995303135,9.58362495831
1447,-19.9077798701,-0.27857111313,0.0182616761027,5.97855684288
1448,-19.3885282633,0.103564944385,-0.0285684473393,8.33645504456
1449,-19.7953643574,-0.242631173382,0.0184684679695,5.97855684288
1450,-19.4365485664,-0.00683817387037,-0.0298806608948,7.93134141954
1451,-19.519344749,0.121163838648,-0.0176403387108,8.76700625739
1452,-19.5288628696,0.0934253678738,0.0159981475198,9.58362495831
1453,-19.5518669116,0.331414786403,0.00755092476494,9.00382231218
1454,-19.7301397244,0.209236914467,-0.285002916004,8.72656343996
1455,-19.5077268105,-0.1682223926,0.262333757055,5.64489095683
1456,-19.918373739,-0.229835959688,0.403590711166,5.64489095683
1457,-19.4508891278,0.0152134080948,-0.0483801245845,7.93134141954
1458,-19.7658272376,-0.217055885066,-0.0349563139877,6.14861671196
1459,-19.5495217435,0.06587201698,-0.0205727979139,9.58362495831
1460,-19.4806920266,0.115584229389,0.0435328986357,9.58362495831
1461,-20.1314365223,-0.401057147471,-0.0270875860713,5.97855684288
1462,-19.5313693594,0.076473710015,-0.0195664870589,9.58362495831
1463,-19.8970494486,-0.190284175809,0.239252989716,5.64489095683
1464,-19.4472778199,0.0428254582969,-0.0417085849461,7.93134141954
1465,-19.5831063677,0.166219094358,0.00386383927032,8.76700625739
1466,-19.2841024144,-0.0769072146442,0.120852780647,5.64489095683
1467,-19.6410427844,0.30382747298,0.0211336290737,7.37116808711
1468,-19.5607945921,0.310023230409,-0.0314067900528,8.61825771698
1469,-19.3295202499,0.106995580868,0.00490418911448,9.58362495831
1470,-19.8309700201,-0.175577773915,-0.0149848109205,5.97855684288
1471,-19.8470477417,-0.197267669265,-0.0602580171695,5.97855684288
1472,-19.579503566,-0.0179103601771,0.0188696268569,5.97855684288
1473,-19.483189243,0.0863442752678,-0.00568003224127,9.58362495831
1474,-19.9703390452,-0.21657237858,-0.0904323780595,5.80204312168
1475,-19.6465219209,0.113850563259,0.0499995123012,9.58362495831
1476,-19.5736356745,0.101653200467,0.0407839164011,9.58362495831
1477,-20.1091349287,-0.259206983996,-0.0265209624281,6.14861671196
1478,-19.6629147895,0.231725875903,0.0238923970802,9.14361635095
1479,-20.1461513046,-0.3816543939,-0.0973692388622,5.80204312168
1480,-19.3036146396,0.141351411227,-0.0250462553793,8.59226370892
1481,-19.7771293655,0.293779094528,0.0601060088662,8.72205532466
1482,-19.488052057,0.22933995828,-0.027490531625,7.94562329498
1483,-19.4182878613,0.0888113553429,-0.00416696863251,9.58362495831
1484,-19.4898339465,0.0843970837208,0.0525081341901,9.58362495831
1485,-19.2018915587,-0.03334307541,-0.0471347098782,7.93134141954
1486,-19.4282704512,0.112403764723,0.00686176039772,9.58362495831
1487,-19.6309525291,0.0958101884843,0.0458315845581,9.58362495831
1488,-19.409744186,-0.18832335613,0.165952599046,5.64489095683
1489,-20.3588677657,-0.39003167876,-0.153821625262,5.80204312168
1490,-20.3564238485,-0.195582785626,0.184743872681,5.64489095683
1491,-20.122844229,-0.323619061241,-0.0978972775051,5.80204312168
1492,-19.801001715,-0.133587969213,0.227156084264,5.64489095683
1493,-20.3957417372,-0.227874932495,0.0421065146077,5.97855684288
1494,-19.6157271014,-0.145234438608,0.302154589947,5.64489095683
1495,-20.1732478964,-0.268642139215,-0.0322457696715,6.14861671196
1496,-20.1745424556,-0.341559841807,-0.102983538995,5.80204312168
1497,-19.6855432606,-0.151410165231,-0.0075462249576,5.97855684288
1498,-19.9463514127,-0.361999367585,-0.0928099146576,5.80204312168
1499,-19.2938873239,-0.141572708779,0.150898793981,5.64489095683
1500,-19.8373069826,-0.234454313423,0.212322718355,5.64489095683
1501,-19.2236236382,-0.0926311824576,0.17868462111,5.64489095683
1502,-19.3013086904,0.0337742379931,-0.019505547382,8.33645504456
1503,-19.7567814161,0.14697730128,0.124107141814,9.58362495831
1504,-19.4814786624,0.000823973045734,-0.0741897252551,7.93134141954
1505,-19.4611324392,-0.141020201053,0.177157022231,5.64489095683
1506,-19.4640885498,-0.103236167098,0.102798597949,5.64489095683
1507,-19.4348863474,0.0795240278453,0.0763942589886,9.58362495831
1508,-19.6237472284,0.132424058781,0.0163266850191,9.58362495831
1509,-19.4965975853,0.049900701456,-0.0420769144597,8.33645504456
1510,-19.3668780511,-0.00143546014626,-0.0307378427693,7.93134141954
1511,-20.2951777037,-0.3603344239,-0.119195850054,5.80204312168
1512,-20.3725195572,-0.41465186521,-0.158700151577,5.80204312168
1513,-19.4399442204,-0.100260615643,0.183956341309,5.64489095683
1514,-19.7814752644,-0.181320900572,-0.0436860936485,5.97855684288
1515,-19.3980439307,-0.0792810390709,-0.074887564042,7.12662246332
1516,-20.0114006585,-0.210536821081,0.186613789806,5.64489095683
1517,-19.5234312378,-0.0806911099633,-0.0292532635476,6.89959088008
1518,-20.121198464,-0.217399435756,0.00796127217038,5.97855684288
1519,-19.4658070635,-0.136097471743,-0.137277042777,7.17801435496
1520,-19.4735525866,0.0941444436478,-0.00121369033098,6.3219035071
1521,-19.5455389801,0.22045668682,-0.00444409686169,7.12662246332
1522,-20.238709931,-0.114723442338,0.18234893288,5.64489095683
1523,-19.4574238498,0.0240480620598,-0.0867294398417,9.58362495831
